svm_type c_svc
kernel_type rbf
gamma 0.03125
nr_class 5
total_sv 1809
rho -0.626516 0.137283 0.018607 -0.169955 0.802272 0.753694 0.447886 -0.135015 -0.316522 -0.237941
label 1 2 3 4 5
nr_sv 328 153 529 430 369
SV
0.01821456603261393 0.1438808589094793 0.2051169906093348 0.1655227979606907 130:0.24706 131:0.28627 132:0.28627 133:0.28627 134:0.28627 135:0.24314 157:0.32941 158:0.92549 159:0.98431 160:0.98431 161:0.99216 162:0.98431 163:0.92549 164:0.32549 183:0.10588 184:0.34902 185:0.92549 186:0.98431 187:0.98431 188:0.98431 189:0.99216 190:0.98431 191:0.98431 192:0.61961 193:0.1451 210:0.18431 211:0.82745 212:0.99216 213:0.98431 214:0.98431 215:0.98431 216:0.67843 217:0.56078 218:0.80392 219:0.98431 220:0.98431 221:0.98431 237:0.10588 238:0.82745 239:0.98431 240:0.99216 241:0.98431 242:0.98431 243:0.67843 244:0.078431 246:0.56471 247:0.98431 248:0.98431 249:0.98431 263:0.4902 264:0.99216 265:0.99216 266:0.99216 267:0.99216 268:1 269:0.99216 270:0.8902 271:0.16471 275:0.8549 276:0.99216 277:0.99216 289:0.24706 290:0.56471 291:0.99216 292:0.98431 293:0.98431 294:0.98431 295:0.98431 296:0.99216 297:0.98431 298:0.98431 299:0.55686 303:0.85098 304:0.98431 305:0.98431 316:0.22745 317:0.90588 318:0.98431 319:0.99216 320:0.98431 321:0.98431 322:0.92157 323:0.33725 324:0.13725 325:0.54118 326:0.96471 327:0.55686 331:0.85098 332:0.98431 333:0.98431 344:0.85098 345:0.98431 346:0.98431 347:0.99216 348:0.98431 349:0.92157 350:0.32157 354:0.54118 355:0.55686 359:0.85098 360:0.98431 361:0.98431 371:0.41176 372:0.9451 373:0.98431 374:0.98431 375:0.99216 376:0.98431 377:0.9451 378:0.40392 382:0.043137 383:0.16078 387:0.85098 388:0.98431 389:0.47843 398:0.082353 399:0.6902 400:0.99216 401:0.99216 402:0.99216 403:1 404:0.99216 405:0.99216 406:0.99216 407:0.28235 413:0.082353 414:0.6902 415:0.99216 416:0.99216 417:0.28235 426:0.6902 427:0.98431 428:0.98431 429:0.98431 430:0.98431 431:0.99216 432:0.98431 433:0.98431 434:0.98431 435:0.27843 441:0.6902 442:0.98431 443:0.90196 444:0.41961 445:0.11765 454:0.99216 455:0.98431 456:0.98431 457:0.98431 458:0.98431 459:0.99216 460:0.98431 461:0.96471 462:0.53725 463:0.039216 468:0.10588 469:0.99216 470:0.98431 471:0.74118 482:0.99216 483:0.98431 484:0.98431 485:0.98431 486:0.98431 487:0.99216 488:0.98431 489:0.53725 494:0.062745 495:0.42745 496:0.82745 497:0.99216 498:0.73725 499:0.078431 510:0.48627 511:0.98431 512:0.98431 513:0.98431 514:0.98431 515:0.99216 516:0.98431 517:0.13725 522:0.1451 523:0.98431 524:0.98431 525:0.99216 526:0.41961 539:0.41176 540:0.95294 541:0.99216 542:0.99216 543:1 544:0.99216 545:0.38431 546:0.28627 547:0.28627 548:0.28627 549:0.28627 550:0.89412 551:0.99216 552:0.99216 568:0.44314 569:0.98431 570:0.98431 571:0.99216 572:0.98431 573:0.98431 574:0.98431 575:0.98431 576:0.99216 577:0.98431 578:0.98431 579:0.98431 580:0.57647 596:0.019608 597:0.44314 598:0.84314 599:0.8902 600:0.98431 601:0.98431 602:0.98431 603:0.98431 604:0.99216 605:0.98431 606:0.96471 607:0.53725 608:0.039216 627:0.16471 628:0.55686 629:0.92549 630:0.98431 631:0.67843 632:0.99216 633:0.98431 634:0.53725 657:0.23922 658:0.27843 659:0.078431 660:0.28235 661:0.27843 662:0.039216 
0.1442954162245395 0.5346203154147515 0.4055075621819209 0.2258327630489829 151:0.22353 152:0.88627 153:1 154:1 155:1 156:0.77647 157:0.44706 158:0.11373 177:0.11373 178:0.88627 179:1 180:1 181:0.88627 182:0.66667 183:0.88627 184:1 185:1 186:1 187:0.66667 188:0.11373 204:0.11373 205:1 206:1 207:0.66667 213:0.22353 214:0.88627 215:1 216:0.88627 217:0.11373 232:0.88627 233:1 234:0.66667 243:0.66667 244:1 245:0.88627 259:0.55294 260:1 261:0.44706 272:0.66667 273:1 274:0.55294 286:0.11373 287:1 288:0.77647 301:0.55294 302:1 303:0.33725 314:0.77647 315:1 316:0.22353 330:1 331:0.77647 341:0.11373 342:1 343:0.66667 358:0.66667 359:1 360:0.11373 369:0.66667 370:1 371:0.11373 386:0.33725 387:1 388:0.44706 397:1 398:1 415:1 416:0.66667 425:1 426:0.88627 427:0.33725 443:1 444:0.66667 453:0.55294 454:1 455:1 456:0.88627 457:0.55294 458:0.11373 471:1 472:0.66667 482:0.33725 483:1 484:1 485:0.66667 486:0.22353 499:1 500:0.66667 511:0.55294 512:1 513:0.44706 526:0.11373 527:1 528:0.66667 540:0.88627 541:1 554:0.33725 555:1 556:0.33725 568:0.44706 569:1 570:0.55294 582:0.88627 583:1 597:0.55294 598:1 599:0.44706 609:0.22353 610:1 611:0.55294 626:0.88627 627:1 628:0.66667 636:0.11373 637:0.88627 638:0.88627 639:0.11373 655:0.77647 656:1 657:1 658:0.44706 659:0.33725 660:0.33725 661:0.33725 662:0.55294 663:0.88627 664:1 665:0.88627 666:0.11373 684:0.22353 685:0.66667 686:0.77647 687:1 688:1 689:1 690:1 691:0.77647 692:0.44706 
0 0 0.02101046724547353 0 186:0.043137 187:0.41961 188:0.41961 189:0.41961 190:0.054902 212:0.1098 213:0.77255 214:0.79216 215:0.99216 216:0.99216 217:0.99216 218:0.8 219:0.77255 220:0.12941 239:0.47451 240:0.83137 241:0.99216 242:0.99216 243:0.99216 244:0.99216 245:0.99216 246:0.99216 247:0.99216 248:0.70196 265:0.21961 266:0.83529 267:0.98824 268:0.99216 269:0.91765 270:0.73333 271:0.15686 272:0.15686 273:0.15686 274:0.88627 275:0.99216 276:0.9451 277:0.29412 293:0.61176 294:0.99216 295:0.99216 296:0.97255 297:0.27451 302:0.87059 303:0.99216 304:0.99216 305:0.70196 319:0.3451 320:0.90196 321:0.98431 322:0.99216 323:0.52941 324:0.090196 330:0.28627 331:0.99216 332:0.99216 333:0.99216 345:0.082353 346:0.61176 347:0.93333 348:0.99216 349:0.99216 350:0.61176 351:0.011765 358:0.22745 359:0.99216 360:0.99216 361:0.59216 371:0.27451 372:0.96471 373:0.96863 374:0.99216 375:0.99216 376:0.99216 377:0.74118 378:0.011765 386:0.22745 387:0.99216 388:0.99216 389:0.34902 398:0.24314 399:0.90196 400:0.99216 401:0.99216 402:0.99216 403:0.99216 404:0.99216 405:0.71373 413:0.019608 414:0.66667 415:0.99216 416:0.98039 417:0.33725 426:0.35686 427:0.99216 428:0.99216 429:0.99216 430:0.99216 431:0.99216 432:0.77647 433:0.058824 441:0.51373 442:0.99216 443:0.99216 444:0.4549 454:0.83529 455:0.99216 456:0.99216 457:0.99216 458:0.99216 459:0.86667 460:0.15686 468:0.18431 469:0.87059 470:0.99216 471:0.93333 472:0.054902 482:1 483:0.99216 484:0.99216 485:0.99216 486:0.99216 487:0.99216 488:0.69412 489:0.33725 495:0.20784 496:0.8902 497:0.99216 498:0.8902 499:0.22745 510:0.89412 511:0.99216 512:0.99216 513:0.99216 514:0.99216 515:0.99216 516:0.99216 517:0.94118 518:0.80392 519:0.18039 520:0.16471 521:0.16471 522:0.22745 523:0.8902 524:0.99216 525:0.90588 526:0.22745 538:0.35686 539:0.99216 540:0.99216 541:0.99216 542:0.99216 543:0.99216 544:0.99216 545:0.99216 546:0.99216 547:0.99216 548:0.99216 549:0.99216 550:0.99216 551:0.99216 552:0.90588 553:0.23137 566:0.047059 567:0.59608 568:0.99216 569:0.81569 570:0.76471 571:0.76471 572:0.76471 573:0.82353 574:0.99216 575:0.99216 576:0.99216 577:0.99216 578:0.82353 579:0.76471 580:0.22745 595:0.027451 596:0.41569 597:0.094118 601:0.1098 602:0.41569 603:0.41569 604:0.41569 605:0.41569 606:0.10588 
0.0596537329435576 0.2235846610550688 0.2146169359518071 0.03706763160070769 149:0.090196 150:0.47059 151:0.61176 152:0.87843 153:0.99608 154:0.99608 155:0.76078 156:0.43922 157:0.16078 176:0.34118 177:0.89804 178:0.99608 179:0.99216 180:0.99216 181:0.99216 182:0.99216 183:0.99608 184:0.99216 185:0.9451 186:0.57647 187:0.019608 203:0.48235 204:0.96863 205:0.99216 206:0.80392 207:0.36078 208:0.30588 209:0.30588 210:0.30588 211:0.39608 212:0.82745 213:0.99216 214:0.99216 215:0.75686 216:0.12157 230:0.27843 231:0.96863 232:0.96863 233:0.54118 234:0.031373 240:0.035294 241:0.34118 242:0.8902 243:0.99216 244:0.85882 245:0.082353 258:0.75294 259:0.99216 260:0.6902 270:0.18431 271:0.90196 272:0.99608 273:0.61961 274:0.11765 285:0.23137 286:0.99608 287:0.99608 288:0.37255 299:0.29804 300:1 301:0.99608 302:0.60784 303:0.019608 313:0.21569 314:0.98039 315:0.99216 316:0.4 328:0.49412 329:0.99216 330:0.99216 331:0.10588 342:0.57647 343:0.99216 344:0.45882 356:0.070588 357:0.88627 358:0.99216 359:0.45882 370:0.066667 371:0.76863 372:0.95294 373:0.85882 374:0.44706 385:0.63529 386:0.99216 387:0.80784 399:0.3098 400:0.92941 401:0.22745 413:0.46275 414:0.99216 415:0.95686 416:0.17647 427:0.6902 428:0.75294 441:0.37647 442:0.99608 443:0.89804 444:0.090196 455:0.68627 456:0.9098 457:0.37255 469:0.078431 470:0.99216 471:0.83529 483:0.68627 484:0.99216 485:0.46275 497:0.078431 498:0.99216 499:0.83529 511:0.48627 512:0.99216 513:0.31373 525:0.28627 526:0.99216 527:0.83529 539:0.18824 540:0.96078 541:0.90196 542:0.14902 553:0.46275 554:0.99216 555:0.6902 568:0.59608 569:0.99608 570:1 571:0.23922 580:0.054902 581:0.87843 582:0.99608 583:0.45882 596:0.023529 597:0.76863 598:0.99608 599:0.92157 600:0.45882 601:0.035294 608:0.58431 609:0.99216 610:0.96863 611:0.12549 625:0.11765 626:0.60784 627:0.99216 628:0.99216 629:0.82745 630:0.68627 631:0.3098 632:0.28627 633:0.098039 634:0.36863 635:0.68627 636:0.99608 637:0.96863 638:0.32941 654:0.019608 655:0.4 656:0.76863 657:0.99216 658:0.99216 659:0.99608 660:0.98431 661:0.94118 662:0.99216 663:0.99216 664:0.95686 665:0.33333 684:0.070588 685:0.28627 686:0.60784 687:0.60784 688:0.78431 689:0.99216 690:0.78431 691:0.60784 692:0.17647 
0.04308680890007347 0.1226817505705055 0.07660674579991557 0.08744526551105633 151:0.058824 152:0.16863 153:0.71765 154:0.98824 155:0.99608 156:0.98824 157:0.98824 158:0.98824 159:0.29804 160:0.14118 178:0.058824 179:0.54902 180:0.98039 181:0.98039 182:0.98039 183:0.98824 184:0.98039 185:0.98039 186:0.98039 187:0.98039 188:0.87843 189:0.33333 190:0.16471 205:0.41961 206:0.58039 207:0.98039 208:0.98039 209:0.98039 210:0.98039 211:0.98824 212:0.98039 213:0.98039 214:0.98039 215:0.98039 216:0.98824 217:0.98039 218:0.73725 219:0.49804 220:0.082353 232:0.44706 233:0.92941 234:0.98824 235:0.98039 236:0.98039 237:0.98039 238:0.43137 239:0.32549 240:0.54118 241:0.98039 242:0.98039 243:0.98039 244:0.98824 245:0.98039 246:0.98039 247:0.98039 248:0.16078 259:0.41961 260:0.92941 261:0.98039 262:0.98824 263:0.98039 264:0.98039 265:0.43137 266:0.027451 268:0.054902 269:0.16078 270:0.7098 271:0.98039 272:0.98824 273:0.98039 274:0.98039 275:0.98039 276:0.85098 286:0.33333 287:0.98824 288:0.98824 289:0.98824 290:0.99608 291:0.6549 300:0.85882 301:0.98824 302:0.98824 303:0.98824 304:0.98824 314:0.33333 315:0.98039 316:0.98039 317:0.98039 318:0.93333 319:0.43529 328:0.16863 329:0.98039 330:0.98039 331:0.98039 332:0.98039 341:0.086275 342:0.65882 343:0.98039 344:0.98039 345:0.98039 346:0.41176 356:0.16863 357:0.98039 358:0.98039 359:0.98039 360:0.98039 369:0.71765 370:0.98039 371:0.98039 372:0.98039 373:0.98039 384:0.16863 385:0.98039 386:0.98039 387:0.98039 388:0.98039 397:0.98824 398:0.98039 399:0.98039 400:0.98039 401:0.2902 412:0.027451 413:0.43529 414:0.98039 415:0.98039 416:0.98039 425:0.99608 426:0.98824 427:0.98824 428:0.98824 429:0.16078 441:0.33725 442:0.98824 443:0.98824 444:0.85098 453:0.98824 454:0.98039 455:0.98039 456:0.98039 457:0.16078 468:0.058824 469:0.54902 470:0.98039 471:0.98039 472:0.16078 481:0.98824 482:0.98039 483:0.98039 484:0.98039 485:0.16078 496:0.16863 497:0.98039 498:0.98039 499:0.98039 500:0.16078 509:0.98824 510:0.98039 511:0.98039 512:0.98039 513:0.16078 524:0.71765 525:0.98039 526:0.98039 527:0.53725 528:0.054902 537:0.29804 538:0.98039 539:0.98039 540:0.98039 541:0.85098 551:0.69412 552:0.98824 553:0.98039 554:0.98039 555:0.32549 566:0.27843 567:0.82353 568:0.82353 569:0.13333 576:0.058824 577:0.16863 578:0.71765 579:0.98824 580:1 581:0.98824 582:0.49412 601:0.22353 602:0.33333 603:0.33725 604:0.54902 605:0.98039 606:0.98039 607:0.98039 608:0.98824 609:0.87059 610:0.32549 622:0.16863 623:0.49804 624:0.49804 625:0.49804 626:0.50196 627:0.49804 628:0.49804 629:0.82353 630:0.98039 631:0.98824 632:0.98039 633:0.98039 634:0.98039 635:0.98039 636:0.49412 637:0.32549 650:0.33333 651:0.98039 652:0.98039 653:0.98039 654:0.98824 655:0.98039 656:0.98039 657:0.98039 658:0.98039 659:0.98824 660:0.98039 661:0.98039 662:0.98039 663:0.43137 678:0.054902 679:0.57255 680:0.98039 681:0.98039 682:0.98824 683:0.98039 684:0.98039 685:0.98039 686:0.98039 687:0.85098 688:0.16078 689:0.16078 690:0.16078 691:0.027451 
0.1073231142522303 0.1313532597404647 0.1015577572332835 0 237:0.082353 238:0.50196 239:0.73333 240:0.73333 241:0.73333 242:0.73333 243:0.73333 244:0.73333 245:0.50588 262:0.011765 263:0.21961 264:0.70196 265:0.9098 266:0.71765 267:0.48627 268:0.48627 269:0.48627 270:0.48627 271:0.48627 272:0.60784 273:0.89412 274:0.91765 275:0.5451 289:0.21176 290:0.52549 291:0.99216 292:0.71765 293:0.23137 301:0.027451 302:0.65098 303:0.98039 304:0.37255 315:0.023529 316:0.5098 317:0.96471 318:0.92157 319:0.24314 320:0.015686 330:0.035294 331:0.6549 332:0.96863 333:0.18431 342:0.047059 343:0.68627 344:0.99216 345:0.99216 346:0.38824 359:0.043137 360:0.99216 361:0.68627 370:0.53333 371:0.99216 372:0.91765 373:0.26667 374:0.015686 387:0.0078431 388:0.69804 389:0.99216 398:0.99608 399:0.76863 400:0.015686 415:0.043137 416:0.99216 417:0.9098 426:1 427:0.62745 443:0.043137 444:0.99216 445:0.58431 454:0.76471 455:0.98824 456:0.10588 471:0.50588 472:0.95686 473:0.15686 482:0.45098 483:0.99216 484:0.80392 485:0.094118 498:0.094118 499:0.8902 500:0.33725 510:0.011765 511:0.058824 512:0.9098 513:0.95294 514:0.51765 515:0.090196 525:0.047059 526:0.81961 527:0.35294 540:0.15686 541:0.41569 542:0.96863 543:0.91373 544:0.71373 545:0.37255 551:0.039216 552:0.43529 553:0.7098 554:0.41569 555:0.043137 570:0.30196 571:0.50588 572:0.86275 573:0.9098 574:0.89412 575:0.89412 576:0.89412 577:0.66275 578:0.79608 579:0.86275 580:0.78824 581:0.29804 601:0.082353 602:0.33333 603:0.72941 604:0.40784 605:0.72157 606:0.58824 607:0.15294 
0 0.143974436970017 0.2593324414772882 0.3374550310792598 215:0.011765 238:0.011765 239:0.26275 240:0.59216 241:0.59216 242:0.59216 243:0.76471 244:0.54902 245:0.17255 246:0.031373 264:0.062745 265:0.64314 266:0.75686 267:0.99216 268:0.99216 269:0.99216 270:0.99216 271:0.99216 272:0.99216 273:0.99216 274:0.78431 275:0.47059 286:0.090196 287:0.59216 288:0.7098 289:0.8902 290:0.75686 291:0.66667 292:0.9098 293:0.99216 294:0.99216 295:0.99216 296:0.96078 297:0.95294 298:0.85098 299:0.52549 300:0.52549 301:0.52549 302:0.89804 303:0.98039 304:0.59216 305:0.070588 314:0.6549 315:0.99216 316:0.99216 317:0.99216 318:0.99216 319:0.99216 320:0.99216 321:0.99216 322:0.98039 323:0.80392 324:0.16863 330:0.15686 331:0.90196 332:0.99216 333:0.22745 342:0.81569 343:0.99216 344:0.99216 345:0.99216 346:0.99216 347:0.99216 348:0.99216 349:0.87843 350:0.25098 359:0.22745 360:0.99216 361:0.56863 370:0.99608 371:0.99216 372:0.99216 373:0.99216 374:0.97255 375:0.52941 376:0.082353 377:0.054902 387:0.066667 388:0.85098 389:0.59608 398:1 399:0.99216 400:0.8902 401:0.36078 402:0.24314 416:0.70196 417:0.99216 426:0.50588 427:0.99216 428:0.7098 429:0.14902 443:0.047059 444:0.80784 445:0.83922 454:0.07451 455:0.81961 456:0.99216 457:0.88627 458:0.19608 459:0.047059 471:0.16471 472:0.99216 473:0.56863 483:0.10196 484:0.81176 485:0.99216 486:0.99216 487:0.81569 488:0.23529 489:0.054902 498:0.098039 499:0.83529 500:0.99216 501:0.2902 512:0.086275 513:0.50588 514:0.99216 515:0.99216 516:0.99216 517:0.85098 518:0.78039 519:0.38431 520:0.24706 525:0.20784 526:0.88235 527:0.99216 528:0.76863 529:0.027451 541:0.0078431 542:0.17647 543:0.46667 544:0.72549 545:0.96863 546:0.99216 547:0.99216 548:0.98039 549:0.95686 550:0.95686 551:0.61176 552:0.93725 553:0.96471 554:0.99216 555:0.93333 556:0.46275 573:0.24314 574:0.70196 575:0.73725 576:0.73725 577:0.87059 578:0.99216 579:0.99216 580:0.99216 581:0.92941 582:0.73725 583:0.32941 605:0.086275 606:0.45098 607:0.58824 608:0.5451 609:0.12549 
0.1783347478787707 0.512273335354506 0.2818854517478205 0.5725938363053641 266:0.090196 267:0.38431 268:0.38431 269:0.38431 270:0.38431 289:0.23137 290:0.55294 291:0.87843 292:0.99608 293:0.99608 294:1 295:0.99608 296:0.99608 297:0.99608 298:0.99608 299:1 300:0.78824 301:0.070588 314:0.027451 315:0.49412 316:0.83922 317:0.99608 318:0.98431 319:0.91373 320:0.8549 321:0.52941 322:0.44706 323:0.47843 324:0.41569 325:0.50196 326:0.52941 327:0.93333 328:0.99216 329:0.88627 330:0.57647 331:0.019608 342:0.57255 343:0.99216 344:0.87059 345:0.4549 346:0.28235 355:0.070588 356:0.50196 357:0.99216 358:0.99216 359:0.49412 369:0.07451 370:0.96863 371:0.64314 372:0.13333 384:0.0078431 385:0.19216 386:0.95294 387:0.96078 397:0.22745 398:0.99216 399:0.07451 413:0.12157 414:0.9451 415:0.99216 425:0.078431 426:0.92157 427:0.058824 440:0.019608 441:0.61176 442:0.99608 443:0.90588 452:0.3451 453:0.054902 454:0.10588 467:0.05098 468:0.58824 469:0.99216 470:0.8902 471:0.18039 480:0.49804 481:0.85098 482:0.32941 494:0.23922 495:0.87843 496:0.99216 497:0.89412 498:0.16863 508:0.019608 509:0.07451 510:0.31765 511:0.61176 512:0.91765 513:0.92157 514:0.59216 515:0.53333 516:0.53333 517:0.53333 518:0.53725 519:0.53333 520:0.65098 521:0.91765 522:0.97255 523:0.99608 524:0.6549 525:0.05098 539:0.035294 540:0.22745 541:0.22745 542:0.54902 543:0.87451 544:0.99216 545:0.99216 546:0.90588 547:0.60784 548:0.60784 549:0.75686 550:0.46275 551:0.22745 552:0.035294 
0 0 0 0.03874579160167658 185:0.098039 186:0.3098 187:0.3098 209:0.1451 210:0.30196 211:0.62353 212:0.91765 213:0.94118 214:0.99216 215:0.99216 216:0.83137 217:0.21176 218:0.1098 235:0.18039 236:0.64706 237:0.97255 238:0.99216 239:0.99608 240:0.99216 241:0.99216 242:0.99216 243:0.99216 244:0.99608 245:0.99216 246:0.92157 247:0.058824 262:0.55294 263:0.99608 264:0.99608 265:0.99608 266:0.99608 267:0.8549 268:0.44314 269:0.26667 271:0.29804 272:0.81961 273:0.99608 274:0.99608 275:0.45882 288:0.10196 289:0.75294 290:0.99608 291:0.99216 292:0.93725 293:0.35686 294:0.15294 295:0.058824 300:0.035294 301:0.53725 302:0.99216 303:0.85098 304:0.10588 315:0.098039 316:0.82353 317:0.99216 318:0.92157 319:0.36078 320:0.094118 329:0.14118 330:0.78039 331:0.99216 332:0.49412 342:0.043137 343:0.67451 344:0.99216 345:0.92941 346:0.20784 358:0.48627 359:0.99216 360:0.81569 370:0.51765 371:0.99216 372:0.92941 373:0.22745 386:0.3098 387:0.99216 388:0.99216 397:0.1451 398:0.93725 399:0.92157 400:0.35294 414:0.3098 415:0.99608 416:0.75686 425:0.55294 426:0.99216 427:0.6549 431:0.066667 432:0.078431 433:0.0078431 441:0.0078431 442:0.6549 443:0.99216 444:0.57647 453:0.61176 454:0.99216 455:0.30588 458:0.07451 459:0.88627 460:0.99216 461:0.45882 469:0.078431 470:0.99216 471:0.94118 472:0.15686 481:0.61176 482:0.99216 483:0.36471 486:0.019608 487:0.85098 488:0.99216 489:0.98039 490:0.76863 491:0.30196 492:0.082353 496:0.039216 497:0.65882 498:0.99216 499:0.42745 509:0.76078 510:0.99216 511:0.68235 515:0.19216 516:0.22745 517:0.63922 518:0.99216 519:0.99608 520:0.88627 521:0.76471 522:0.76471 523:0.76471 524:0.81961 525:0.99216 526:0.72549 527:0.047059 537:0.76078 538:0.99608 539:0.99608 540:0.78824 541:0.61176 542:0.61176 543:0.58039 544:0.070588 545:0.35686 546:0.67843 547:1 548:0.99608 549:0.99608 550:0.99608 551:0.99608 552:0.76863 553:0.23529 554:0.11765 565:0.18431 566:0.7098 567:0.96863 568:0.99216 569:0.99216 570:0.99608 571:0.99216 572:0.45098 575:0.23922 576:0.52941 577:0.52941 578:0.52941 579:0.38824 580:0.058824 595:0.21176 596:0.30588 597:0.30588 598:0.30588 599:0.30588 600:0.094118 
0.1669493961808216 0.518364917751745 0.4902771190978825 0.258972564863781 151:0.23529 152:0.23137 153:0.23137 154:0.23137 155:0.23137 156:0.23529 157:0.23137 158:0.23137 159:0.019608 176:0.17255 177:0.46275 178:0.75686 179:0.99608 180:0.99608 181:0.94118 182:0.91765 183:0.91765 184:0.92157 185:0.98431 186:0.99608 187:0.79608 188:0.46275 189:0.062745 203:0.17255 204:0.90196 205:0.99608 206:0.87451 207:0.6902 208:0.36471 209:0.094118 213:0.25882 214:0.42353 215:0.73333 216:0.99608 217:0.92941 218:0.3451 231:0.81569 232:0.99608 233:0.79216 234:0.13333 243:0.011765 244:0.22353 245:0.87843 246:0.98824 247:0.39216 248:0.011765 259:0.84314 260:0.99608 261:0.07451 273:0.054902 274:0.72941 275:0.99608 276:0.22353 287:0.61176 288:0.99608 289:0.78824 290:0.23137 302:0.062745 303:0.92941 304:0.84314 315:0.13725 316:0.99608 317:0.99608 318:0.63922 331:0.36863 332:0.97255 333:0.22353 343:0.46667 344:0.99608 345:0.7098 346:0.92549 347:0.14902 359:0.094118 360:0.9451 361:0.60784 370:0.12549 371:0.92549 372:0.76863 373:0.035294 374:0.058824 388:0.92157 389:0.96471 398:0.52549 399:0.96471 400:0.18824 416:0.77255 417:0.99608 426:0.8549 427:0.53333 444:0.53725 445:0.99608 454:0.99608 455:0.35686 472:0.53725 473:0.99608 482:0.99608 483:0.27059 500:0.53725 501:0.99608 510:0.99608 511:0.59216 527:0.05098 528:0.90588 529:0.57647 538:0.85098 539:0.97647 540:0.23529 554:0.062745 555:0.83922 556:0.93333 557:0.14118 566:0.32941 567:0.96471 568:0.87843 569:0.13725 581:0.054902 582:0.73333 583:0.99608 584:0.60784 595:0.30588 596:0.82353 597:0.91373 598:0.54902 599:0.21176 607:0.015686 608:0.37647 609:0.73333 610:0.98824 611:0.65098 612:0.098039 624:0.094118 625:0.65882 626:0.80392 627:0.92941 628:0.51373 629:0.3098 630:0.26275 632:0.3098 633:0.3098 634:0.57255 635:0.73725 636:0.99608 637:0.80784 638:0.4902 654:0.031373 655:0.31373 656:0.78431 657:0.83922 658:0.97255 659:0.92157 660:1 661:0.98039 662:0.83922 663:0.78039 664:0.45882 665:0.031373 686:0.21176 687:0.22745 688:0.23137 689:0.21176 
0.2398443355551566 0.2011729741469898 0.2799375848465732 0 153:0.16078 154:0.64314 155:0.99608 156:1 157:0.99608 158:0.99608 159:0.43529 160:0.054902 180:0.27451 181:0.9451 182:0.98039 183:0.61961 184:0.29804 185:0.47843 186:0.64706 187:0.98431 188:0.72549 207:0.07451 208:0.88627 209:0.77647 210:0.25882 215:0.34118 216:0.92157 234:0.062745 235:0.64314 236:0.94902 237:0.16863 244:0.55686 245:0.56078 262:0.52941 263:0.99608 264:0.47451 272:0.090196 273:0.76471 289:0.15686 290:0.99608 291:0.44706 301:1 302:0.15294 317:0.1451 318:0.91373 329:0.99608 330:0.15294 357:0.99608 358:0.15294 373:0.027451 374:0.59608 375:0.92157 376:0.40784 384:0.35686 385:0.95686 386:0.12941 401:0.30196 402:0.84314 403:0.54902 404:0.76471 411:0.062745 412:0.61569 413:0.61569 429:0.53725 430:0.37647 432:0.14902 439:0.098039 440:0.90588 441:0.29804 457:0.53333 458:0.54902 467:0.15686 468:0.81176 485:0.53333 486:0.60784 495:0.41961 496:0.49412 513:0.53333 514:0.46275 522:0.05098 523:0.72941 524:0.19216 541:0.53333 542:0.90196 550:0.3098 551:0.83529 569:0.15686 570:0.99608 571:0.38824 577:0.019608 578:0.76078 579:0.45882 597:0.023529 598:0.61961 599:0.90196 600:0.12941 604:0.019608 605:0.58824 606:0.84706 607:0.098039 626:0.26667 627:0.99608 628:0.70196 629:0.094118 632:0.49804 633:0.96863 634:0.32941 655:0.72941 656:0.99216 657:0.81961 658:0.53333 659:0.53333 660:0.96471 661:0.35686 683:0.054902 684:0.54902 685:0.87451 686:0.99216 687:0.84314 688:0.52157 689:0.035294 
0.05934414134585107 0.2185197745728304 0.2134672646091737 0.1078378844997107 150:0.28627 151:0.12157 152:0.24706 153:0.28627 154:0.28627 155:0.28627 156:0.28627 157:0.28627 158:0.16471 177:0.41176 178:0.99216 179:0.74118 180:0.92549 181:0.98431 182:0.98431 183:0.99216 184:0.98431 185:0.98431 186:0.80392 187:0.16078 203:0.023529 204:0.45098 205:0.9451 206:0.99216 207:0.98431 208:0.98431 209:0.98431 210:0.98431 211:0.99216 212:0.98431 213:0.98431 214:0.98431 215:0.88627 216:0.65098 217:0.062745 231:0.1451 232:0.98431 233:0.98431 234:0.99216 235:0.98431 236:0.98431 237:0.98431 238:0.98431 239:0.99216 240:0.98431 241:0.98431 242:0.98431 243:0.98431 244:0.99216 245:0.66275 246:0.058824 259:0.65098 260:0.98431 261:0.98431 262:0.99216 263:0.98431 264:0.37647 265:0.27843 266:0.27843 267:0.28235 268:0.68235 269:0.98431 270:0.98431 271:0.98431 272:0.99216 273:0.98431 274:0.13725 287:0.8549 288:0.99216 289:0.99216 290:0.79216 291:0.12157 298:0.3098 299:0.9098 300:1 301:0.99216 302:0.99216 303:0.56078 314:0.32941 315:0.92549 316:0.98431 317:0.98431 318:0.99216 319:0.74118 320:0.48627 327:0.30196 328:0.99216 329:0.98431 330:0.98431 331:0.55686 342:0.56471 343:0.98431 344:0.98431 345:0.98431 346:0.99216 347:0.98431 348:0.96471 349:0.85098 350:0.85098 351:0.61176 356:0.8902 357:0.98431 358:0.98431 359:0.92549 360:0.23922 369:0.12549 370:0.7451 371:0.98431 372:0.98431 373:0.98431 374:0.56078 375:0.55686 376:0.55686 377:0.55686 378:0.55686 379:0.40392 384:0.28627 385:0.98431 386:0.98431 387:0.98431 388:0.27843 397:0.79216 398:0.98431 399:0.98431 400:0.98431 401:0.47843 412:0.082353 413:0.68235 414:0.98431 415:0.98431 416:0.78431 425:1 426:0.99216 427:0.99216 428:0.99216 429:0.28235 441:0.41176 442:0.95294 443:0.99216 444:0.99216 453:0.99216 454:0.98431 455:0.98431 456:0.98431 457:0.27843 470:0.85098 471:0.98431 472:0.98431 481:0.99216 482:0.98431 483:0.98431 484:0.98431 485:0.27843 498:0.85098 499:0.98431 500:0.98431 509:0.68627 510:0.98431 511:0.98431 512:0.98431 513:0.58039 525:0.24706 526:0.90588 527:0.98431 528:0.98431 537:0.082353 538:0.68235 539:0.98431 540:0.98431 541:0.98431 553:0.56471 554:0.98431 555:0.98431 556:0.98431 567:0.61176 568:0.70588 569:0.70588 573:0.12549 574:0.28627 575:0.28627 576:0.28627 577:0.28627 578:0.28627 579:0.28627 580:0.4902 581:0.99216 582:0.99216 583:0.99216 584:0.78824 600:0.082353 601:0.7451 602:0.98431 603:0.99216 604:0.98431 605:0.98431 606:0.98431 607:0.98431 608:0.99216 609:0.98431 610:0.98431 611:0.98431 612:0.27843 628:0.65098 629:0.98431 630:0.98431 631:0.99216 632:0.98431 633:0.98431 634:0.98431 635:0.98431 636:0.99216 637:0.98431 638:0.86275 639:0.53725 640:0.039216 656:0.082353 657:0.55686 658:0.55686 659:0.99216 660:0.98431 661:0.98431 662:0.98431 663:0.98431 664:0.56078 665:0.55686 666:0.078431 687:0.28235 688:0.27843 689:0.27843 690:0.27843 691:0.27843 
0 0.006289932993904646 0.06807406435763758 0.05946450581813223 149:0.31373 150:0.46275 151:0.73725 152:0.99608 153:0.99608 154:0.99608 155:0.99608 156:0.99608 157:0.6902 158:0.46275 159:0.27451 175:0.32157 176:0.49804 177:0.96863 178:0.99216 179:0.99216 180:0.99216 181:0.99216 182:0.99216 183:0.99216 184:0.99216 185:0.99216 186:0.99216 187:0.96078 188:0.32941 202:0.48235 203:0.96863 204:0.99216 205:0.99216 206:0.99216 207:0.99216 208:0.99216 209:0.99216 210:0.99216 211:0.99216 212:0.99216 213:0.99216 214:0.99216 215:0.99216 216:0.94118 217:0.34118 229:0.10196 230:0.93333 231:0.99216 232:0.99216 233:0.96471 234:0.77647 235:0.77647 236:0.77647 237:0.29412 238:0.23922 239:0.23922 240:0.29804 241:0.78039 242:0.99216 243:0.99216 244:0.99216 245:0.93333 246:0.34118 257:0.46275 258:0.99216 259:0.99216 260:0.96471 261:0.45098 269:0.011765 270:0.32157 271:0.96078 272:0.99216 273:0.99216 274:0.85098 275:0.05098 285:0.46275 286:0.99216 287:0.99216 288:0.45882 299:0.61961 300:0.99216 301:0.99216 302:0.99216 303:0.37647 313:0.46275 314:0.99216 315:0.99216 316:0.23922 327:0.2 328:0.92549 329:0.99216 330:0.99216 331:0.65098 341:0.46275 342:0.99216 343:0.99216 344:0.23922 356:0.33725 357:0.99216 358:0.99216 359:0.9098 369:0.46275 370:0.99216 371:0.99216 372:0.72157 384:0.32549 385:0.99216 386:0.99216 387:0.98431 388:0.40784 397:0.33725 398:0.97255 399:0.99216 400:0.83529 401:0.090196 412:0.32549 413:0.99216 414:0.99216 415:0.99216 416:0.4549 426:0.81569 427:0.99216 428:0.99216 429:0.71373 440:0.26275 441:0.95294 442:0.99216 443:0.99216 444:0.4549 454:0.33725 455:0.97647 456:0.99216 457:0.9451 458:0.32941 459:0.054902 469:0.78039 470:0.99216 471:0.98431 472:0.40784 483:0.81961 484:0.99216 485:0.99216 486:0.99216 487:0.49804 488:0.0039216 496:0.011765 497:0.78824 498:0.99216 499:0.9098 511:0.15294 512:0.87451 513:0.99216 514:0.99216 515:0.99216 516:0.49804 517:0.05098 524:0.32549 525:0.99216 526:0.99216 527:0.9098 540:0.15686 541:0.86275 542:0.99216 543:0.99216 544:0.99216 545:0.32549 552:0.54118 553:0.99216 554:0.99216 555:0.9098 569:0.16471 570:0.86275 571:0.99216 572:0.99216 573:0.9451 574:0.71765 575:0.26275 579:0.35294 580:0.97647 581:0.99216 582:0.99216 583:0.44706 598:0.15686 599:0.87451 600:0.99216 601:0.99216 602:0.99216 603:0.95294 604:0.78039 605:0.78039 606:0.78039 607:0.86667 608:0.99216 609:0.99216 610:0.73333 611:0.082353 627:0.15294 628:0.8902 629:0.99216 630:0.99216 631:0.99216 632:0.99216 633:0.99216 634:0.99216 635:0.99216 636:0.99216 637:0.95294 638:0.24706 656:0.16471 657:0.37647 658:0.83529 659:0.99216 660:0.99216 661:0.99216 662:0.99216 663:0.99216 664:0.96471 665:0.4 686:0.12549 687:0.55686 688:0.99216 689:0.99216 690:0.99216 691:0.99216 692:0.38039 
0.03736834665010648 0.3194880274007863 0.1413756503660683 0.18698910750751 155:0.48235 156:0.99216 157:0.99216 158:0.99216 159:0.99216 160:0.92941 161:0.21569 181:0.086275 182:0.67843 183:0.99216 184:0.98824 185:0.98824 186:0.98824 187:0.98824 188:0.99216 189:0.90588 190:0.062745 208:0.078431 209:0.79216 210:0.98824 211:0.99216 212:0.61569 213:0.49412 214:0.39216 215:0.42745 216:0.99216 217:0.98824 218:0.2902 235:0.18824 236:0.79216 237:0.98824 238:0.88627 239:0.50196 240:0.082353 244:0.99216 245:0.98824 246:0.49412 262:0.070588 263:0.84706 264:0.98824 265:0.71373 266:0.16471 272:0.64706 273:0.98824 274:0.49412 289:0.31373 290:1 291:0.99216 292:0.66667 300:0.75686 301:0.99216 302:0.49804 316:0.18824 317:0.94902 318:0.99216 319:0.98824 320:0.18431 328:0.58039 329:0.98824 330:0.35686 343:0.043137 344:0.61961 345:0.98824 346:0.9098 347:0.35686 348:0.0078431 356:0.78824 357:0.98824 358:0.082353 371:0.18824 372:0.98824 373:0.98824 374:0.61961 383:0.10588 384:0.99216 385:0.90588 386:0.062745 399:0.67059 400:0.98824 401:0.81569 411:0.41569 412:0.99216 413:0.48627 427:0.91373 428:0.99216 429:0.33725 438:0.043137 439:0.85882 440:0.96863 441:0.20784 455:0.9098 456:0.80392 457:0.043137 466:0.38824 467:0.98824 468:0.6902 483:0.9098 484:0.74118 493:0.043137 494:0.82745 495:0.98824 496:0.20784 511:0.68235 512:0.82353 513:0.1098 520:0.086275 521:0.48627 522:0.98824 523:0.60784 540:0.1098 541:0.027451 548:0.50196 549:0.98824 550:0.88627 551:0.094118 569:0.24314 570:0.34118 571:0.043137 575:0.65098 576:0.99216 577:0.98039 578:0.27451 596:0.086275 597:0.78039 598:0.99216 599:0.24706 602:0.4549 603:0.99216 604:0.98824 605:0.59608 624:0.45882 625:0.98824 626:0.83922 627:0.082353 628:0.29412 629:0.6 630:0.97647 631:0.99216 632:0.61569 633:0.07451 652:0.55686 653:0.98824 654:0.93725 655:0.9098 656:0.98824 657:0.98824 658:0.88627 659:0.67451 660:0.082353 680:0.1451 681:0.92157 682:0.99216 683:0.98824 684:0.95686 685:0.57647 686:0.33725 
0 0.2550629765315244 0 0.3076554080528675 70:0.19216 160:0.070588 161:0.0078431 185:0.35294 186:0.65098 187:0.65098 188:0.92157 189:0.65882 190:0.086275 212:0.24314 213:0.88235 214:0.99216 215:0.99216 216:0.99216 217:0.99216 218:0.53725 238:0.019608 239:0.34902 240:0.96863 241:0.99216 242:0.97255 243:0.76078 244:0.98431 245:0.99216 246:0.82745 247:0.011765 265:0.054902 266:0.72157 267:0.99608 268:0.99216 269:0.92549 270:0.20392 272:0.78039 273:0.99216 274:0.99216 275:0.25882 292:0.12941 293:0.81569 294:0.99216 295:0.99608 296:0.91373 297:0.23137 300:0.78039 301:0.99216 302:0.86275 303:0.066667 319:0.019608 320:0.72157 321:0.99216 322:0.99216 323:0.75294 324:0.22745 328:0.78039 329:0.99216 330:0.81961 346:0.047059 347:0.73725 348:0.99608 349:0.99608 350:0.69412 355:0.21961 356:0.99608 357:0.99608 358:0.39216 374:0.65098 375:0.99216 376:0.99216 377:0.66667 378:0.039216 383:0.33333 384:0.99216 385:0.96471 386:0.11765 401:0.35294 402:0.95686 403:0.97647 404:0.34118 405:0.047059 410:0.07451 411:0.93333 412:0.99216 413:0.42353 428:0.31373 429:0.98039 430:0.99216 431:0.3098 437:0.035294 438:0.73333 439:0.99216 440:0.61961 441:0.0039216 456:0.52157 457:0.99216 458:0.76471 459:0.031373 464:0.15294 465:0.7098 466:0.99216 467:0.9451 468:0.16863 484:0.52157 485:0.99216 486:0.91765 487:0.23529 488:0.13725 491:0.2549 492:0.92941 493:0.99216 494:0.99216 495:0.43922 511:0.20784 512:0.89412 513:0.51373 514:0.66667 515:0.87451 516:0.035294 517:0.015686 518:0.61176 519:0.96078 520:0.99216 521:0.99216 522:0.50196 523:0.031373 538:0.16078 539:0.92941 540:0.71765 542:0.062745 543:0.38431 544:0.60784 545:0.72549 546:0.99216 547:1 548:0.94902 549:0.46275 550:0.015686 566:0.26275 567:0.99216 568:0.97255 569:0.73725 570:0.82745 571:0.99216 572:0.99216 573:0.99216 574:0.99216 575:0.69412 576:0.32157 594:0.035294 595:0.6549 596:0.99216 597:0.99216 598:0.99216 599:0.99216 600:0.99216 601:0.86275 602:0.37255 
0 0.2309038154816861 0.1356051723109823 0 213:0.043137 214:0.2 215:0.16078 239:0.24314 240:0.71765 241:0.83529 242:0.98824 243:0.95294 244:0.79608 245:0.4 246:0.078431 260:0.4 261:0.87843 262:0.078431 265:0.12157 266:0.67843 267:0.99608 268:0.99216 269:0.99608 270:0.99216 271:0.99608 272:0.99216 273:1 274:0.83529 275:0.32157 287:0.082353 288:0.63529 289:0.87451 290:0.078431 293:0.91373 294:0.98824 295:0.99216 296:0.98824 297:0.99216 298:0.98824 299:0.99216 300:0.98824 301:0.99216 302:0.98824 303:0.95294 304:0.15686 315:0.51765 316:0.99216 317:0.79608 319:0.51765 320:0.99216 321:0.99608 322:0.99216 323:0.99608 324:0.99216 325:0.95686 326:0.63529 329:0.99608 330:0.99216 331:0.91765 332:0.83529 342:0.48235 343:0.99216 344:0.98824 345:0.47843 346:0.32157 347:0.99216 348:0.98824 349:0.99216 350:0.98824 351:0.99216 352:0.83137 353:0.15686 357:0.67451 358:0.98824 359:0.99216 360:0.9098 370:0.79608 371:0.99608 372:0.99216 373:0.55686 375:0.91765 376:0.99216 377:0.99608 378:0.91373 379:0.4 380:0.23922 385:0.83922 386:0.99216 387:0.99608 388:0.99216 397:0.48235 398:0.95294 399:0.99216 400:0.98824 401:0.4 403:0.36078 404:0.59216 405:0.59216 406:0.19608 412:0.16078 413:0.99216 414:0.98824 415:0.99216 416:0.98824 425:0.59608 426:0.99216 427:0.99608 428:0.99216 439:0.2 440:0.75686 441:0.99608 442:0.99216 443:0.99608 444:0.59216 453:0.75686 454:0.98824 455:0.99216 456:0.83137 466:0.16078 467:0.91373 468:0.98824 469:0.99216 470:0.98824 471:0.99216 472:0.27451 481:0.99608 482:0.99216 483:0.99608 484:0.51373 492:0.16078 493:0.83922 494:0.99216 495:0.99608 496:0.99216 497:0.99608 498:0.99216 499:0.71765 509:0.67451 510:0.98824 511:0.99216 512:0.98824 513:0.4 514:0.4 515:0.4 516:0.4 517:0.48235 518:0.79608 519:0.79608 520:0.95294 521:0.99216 522:0.98824 523:0.99216 524:0.98824 525:0.99216 526:0.67059 527:0.078431 538:0.48235 539:0.91765 540:0.99216 541:0.99608 542:0.99216 543:0.99608 544:0.99216 545:0.99608 546:0.99216 547:0.99608 548:0.99216 549:0.99608 550:0.99216 551:0.87843 552:0.4 553:0.32157 567:0.11765 568:0.19608 569:0.99216 570:0.98824 571:0.99216 572:0.98824 573:0.99216 574:0.98824 575:0.99216 576:0.98824 577:0.75294 578:0.59216 579:0.31765 597:0.082353 598:0.4 599:0.55686 600:0.4 601:0.24314 602:0.4 603:0.32157 
0.01479630610814675 0 0 0 179:0.035294 180:0.098039 181:0.30196 182:0.56863 183:0.098039 184:0.098039 185:0.082353 205:0.10588 206:0.1451 207:0.6549 208:0.99216 209:0.99216 210:0.99216 211:0.99608 212:0.99216 213:0.94118 214:0.52549 215:0.1451 216:0.10196 232:0.21961 233:0.90196 234:0.99216 235:0.99216 236:0.99216 237:0.99216 238:0.99216 239:0.99608 240:0.99216 241:0.99216 242:0.99216 243:0.99216 244:0.89804 245:0.21569 258:0.070588 259:0.71373 260:0.90196 261:0.99216 262:0.99216 263:0.99216 264:0.99216 265:0.99216 266:0.99216 267:0.75686 268:0.75686 269:0.78824 270:0.99216 271:0.99216 272:0.99216 273:0.89804 274:0.21569 285:0.15294 286:0.58039 287:0.99216 288:0.99216 289:0.99216 290:0.99216 291:0.99216 292:0.88235 293:0.70588 294:0.48235 297:0.035294 298:0.32549 299:0.77647 300:0.99216 301:0.99216 302:0.90588 303:0.070588 313:0.52157 314:0.99216 315:0.99216 316:0.99216 317:0.99216 318:0.99216 319:0.56078 320:0.11765 327:0.16078 328:0.91373 329:0.99216 330:0.99216 331:0.47843 341:0.74902 342:0.99216 343:0.99216 344:0.99216 345:0.99216 346:0.99216 347:0.59216 356:0.57647 357:0.99216 358:0.99216 359:0.93333 360:0.039216 369:0.05098 370:0.36471 371:0.83137 372:0.99216 373:0.99216 374:0.87059 375:0.53333 376:0.066667 384:0.28627 385:0.99216 386:0.99216 387:0.99216 388:0.47843 399:0.39216 400:0.99216 401:0.99216 402:0.70588 412:0.28627 413:0.99216 414:0.99216 415:0.99216 416:0.51765 427:0.13725 428:0.98039 429:0.99608 430:0.72549 431:0.011765 440:0.2902 441:0.99608 442:0.99608 443:0.99608 444:0.99608 456:0.66275 457:0.99216 458:0.99216 459:0.46275 468:0.25882 469:0.97647 470:0.99216 471:0.99216 472:0.72157 484:0.37255 485:0.99216 486:0.99216 487:0.65882 496:0.043137 497:0.83529 498:0.99216 499:0.99216 500:0.51765 512:0.066667 513:0.80392 514:0.99216 515:0.88235 516:0.094118 524:0.28627 525:0.99216 526:0.99216 527:0.99216 528:0.51765 541:0.37255 542:0.99216 543:0.99216 544:0.48235 552:0.62745 553:0.99216 554:0.99216 555:0.99216 556:0.40784 569:0.058824 570:0.59608 571:0.94118 572:0.90588 573:0.55294 574:0.28627 579:0.20784 580:0.82745 581:0.99216 582:0.99216 583:0.99216 584:0.043137 599:0.53725 600:0.9451 601:0.99216 602:0.99216 603:0.81176 604:0.80784 605:0.73725 606:0.42745 607:0.94118 608:0.99216 609:0.99216 610:0.99216 611:0.85098 612:0.031373 628:0.12157 629:0.14118 630:0.59216 631:0.99608 632:0.99216 633:0.99216 634:0.99216 635:0.99216 636:0.99216 637:0.99216 638:0.84706 639:0.12549 659:0.11373 660:0.56471 661:0.56471 662:0.56471 663:0.56471 664:0.56471 665:0.56471 666:0.12549 
0 0.008329437377507316 0.2764986475802868 0 131:0.20392 132:0.27451 133:0.27451 134:0.29804 135:0.2549 157:0.043137 158:0.45882 159:0.92941 160:0.99216 161:0.99216 162:0.99216 163:0.78039 164:0.035294 184:0.44314 185:0.9098 186:0.99216 187:0.99216 188:0.99216 189:0.99216 190:0.99216 191:0.99216 192:0.54118 210:0.027451 211:0.47059 212:0.90588 213:0.99216 214:0.99216 215:0.77647 216:0.64706 217:0.41176 218:0.95294 219:0.99216 220:0.99216 237:0.027451 238:0.57255 239:0.99216 240:0.99216 241:0.99216 242:0.8902 243:0.31373 246:0.92549 247:0.99216 248:0.99216 264:0.031373 265:0.57255 266:0.99216 267:0.99216 268:0.99216 269:0.48235 270:0.062745 274:0.92549 275:0.99216 276:0.92157 292:0.51765 293:0.99216 294:0.99216 295:0.94902 296:0.44314 297:0.066667 301:0.27451 302:0.96863 303:0.99216 304:0.50588 318:0.031373 319:0.18431 320:0.89412 321:0.99216 322:0.9451 323:0.34902 329:0.41569 330:0.99216 331:0.99216 332:0.41176 342:0.011765 343:0.44314 346:0.14902 347:0.85098 348:0.99216 349:0.99216 350:0.40784 356:0.086275 357:0.78039 358:0.99216 359:0.99216 360:0.019608 370:0.40784 371:0.92157 373:0.090196 374:0.76863 375:0.99216 376:0.99216 377:0.47843 378:0.070588 384:0.50588 385:0.99216 386:0.99216 387:0.29804 388:0.0078431 398:0.53333 399:0.94118 400:0.24314 401:0.49412 402:0.99216 403:0.99216 404:0.71373 405:0.070588 411:0.27843 412:0.96471 413:0.99216 414:0.7451 415:0.035294 426:0.53333 427:0.99216 428:0.97255 429:0.9098 430:0.99216 431:0.85882 432:0.070588 438:0.24706 439:0.78824 440:0.99216 441:0.87059 442:0.05098 454:0.1451 455:0.99216 456:0.99216 457:0.99216 458:0.87451 459:0.16078 465:0.25882 466:0.87843 467:0.99216 468:0.87059 469:0.39608 482:0.05098 483:0.99216 484:0.99216 485:0.99216 486:0.89804 487:0.11765 489:0.24314 490:0.3451 491:0.3451 492:0.58039 493:0.86667 494:0.99216 495:0.86667 496:0.4 510:0.47059 511:0.99216 512:0.99216 513:0.99216 514:0.99216 515:0.65882 516:0.85098 517:0.95294 518:0.99216 519:0.99216 520:0.99216 521:0.99216 522:0.99216 523:0.21176 537:0.64314 538:0.93725 539:0.99216 540:0.99216 541:0.99216 542:0.99216 543:0.99216 544:0.99216 545:0.99216 546:0.99216 547:0.99216 548:0.99216 549:0.99216 550:0.26667 551:0.019608 565:0.99608 566:0.99216 567:0.99216 568:0.74902 569:0.51765 570:0.60392 571:0.78039 572:0.58039 573:0.58039 574:0.58039 575:0.58039 576:0.58039 577:0.18824 578:0.015686 593:0.78431 594:0.99216 595:0.7451 596:0.23137 598:0.035294 599:0.035294 621:0.26275 622:0.070588 623:0.23529 626:0.070588 627:0.23922 628:0.37255 631:0.35294 632:0.32941 633:0.22745 634:0.22745 654:0.24314 655:0.25098 656:0.019608 659:0.015686 660:0.16078 661:0.25882 662:0.094118 
0 0.6889271901319471 0.2363113117203638 0.1436622014160569 212:0.46667 213:0.7451 214:0.7451 215:0.7451 216:0.7451 217:0.37647 218:0.039216 237:0.082353 238:0.7098 239:0.81569 240:0.98039 241:0.99608 242:0.99608 243:0.99608 244:0.99608 245:0.99608 246:0.6549 247:0.023529 263:0.043137 264:0.49804 265:0.91373 266:0.99608 267:0.99608 268:0.99608 269:0.99608 270:0.75294 271:0.57647 272:0.88235 273:0.99608 274:0.99608 275:0.26275 289:0.011765 290:0.035294 291:0.75294 292:0.99608 293:0.99216 294:0.97647 295:0.58039 296:0.50588 297:0.05098 298:0.019608 300:0.15686 301:0.90196 302:0.99608 303:0.76078 316:0.035294 317:0.47843 318:0.99608 319:0.99608 320:0.86275 321:0.33725 328:0.25882 329:0.99608 330:0.99608 331:0.99608 342:0.035294 343:0.12157 344:0.64314 345:0.99608 346:0.90588 347:0.37255 348:0.13725 356:0.098039 357:0.86667 358:0.99608 359:0.99608 369:0.1451 370:0.61176 371:0.91373 372:0.75294 373:0.76471 374:0.17255 384:0.062745 385:0.83922 386:0.99608 387:0.8902 396:0.19608 397:0.9098 398:0.99608 399:0.63922 400:0.043137 412:0.4 413:0.99608 414:0.99608 415:0.39216 424:0.92941 425:0.99608 426:0.81961 427:0.043137 438:0.047059 439:0.67843 440:0.95294 441:0.99608 442:0.85098 443:0.043137 452:0.79608 453:0.99608 454:0.98039 455:0.56078 456:0.2902 465:0.43922 466:0.72549 467:0.99608 468:0.99608 469:0.85098 470:0.33725 480:0.29412 481:0.95686 482:0.99608 483:0.99608 484:0.99216 485:0.37255 486:0.49804 487:0.2549 488:0.047059 489:0.047059 490:0.047059 491:0.44314 492:0.71765 493:0.99608 494:0.99608 495:0.98824 496:0.83137 497:0.1098 509:0.058824 510:0.51373 511:0.91373 512:0.99608 513:0.99608 514:0.99608 515:0.99608 516:0.99608 517:1 518:0.99608 519:0.99608 520:0.99608 521:0.99608 522:0.98431 523:0.50196 539:0.098039 540:0.34902 541:0.34902 542:0.57255 543:0.81176 544:0.92941 545:0.99608 546:0.99608 547:0.92941 548:0.81176 549:0.35686 550:0.30588 572:0.17647 573:0.27843 574:0.27843 575:0.17647 
0 0.2962627677197567 0.2041523188785559 0.04409202444171102 159:0.25098 160:0.74902 161:0.50196 162:0.25098 186:0.50196 187:1 188:1 189:1 190:1 213:1 214:1 215:1 216:1 217:1 218:1 219:0.50196 239:1 240:1 241:1 242:1 243:1 244:0.50196 245:1 246:1 247:0.50196 266:0.74902 267:1 268:1 269:1 270:0.74902 272:0.74902 273:1 274:1 275:0.50196 293:0.25098 294:1 295:1 296:1 297:0.50196 300:1 301:1 302:1 303:0.50196 320:0.50196 321:1 322:1 323:1 324:0.50196 328:1 329:1 330:1 331:0.25098 347:0.25098 348:0.74902 349:1 350:1 351:0.25098 356:1 357:1 358:0.74902 375:1 376:1 377:1 378:0.74902 383:0.25098 384:1 385:1 386:0.50196 402:0.50196 403:1 404:1 405:1 410:0.25098 411:1 412:1 413:0.74902 429:0.25098 430:1 431:1 432:1 433:0.50196 438:0.50196 439:1 440:1 441:0.50196 457:0.74902 458:1 459:1 460:0.74902 465:0.74902 466:1 467:1 468:0.74902 485:1 486:1 487:1 488:0.50196 492:0.25098 493:1 494:1 495:1 496:0.25098 513:1 514:1 515:1 516:0.50196 518:0.25098 519:0.74902 520:1 521:1 522:0.74902 523:0.50196 540:0.50196 541:1 542:1 543:0.74902 546:1 547:1 548:1 549:1 550:0.25098 568:0.50196 569:1 570:1 571:1 572:0.74902 573:1 574:1 575:1 576:1 596:0.50196 597:1 598:1 599:1 600:1 601:1 602:1 603:0.50196 624:0.25098 625:1 626:1 627:1 628:1 629:0.74902 653:0.74902 654:1 655:1 656:0.25098 681:0.25098 682:0.74902 683:0.25098 
0 0 0 0.05710196831818238 209:0.098039 210:0.63922 211:0.64314 212:0.64314 213:0.64314 214:0.49412 215:0.58039 231:0.023529 232:0.1098 233:0.47059 234:0.47059 235:0.6 236:0.85882 237:0.9098 238:0.99216 239:0.99216 240:0.99216 241:0.99216 242:0.99216 243:0.98039 244:0.73725 245:0.26275 246:0.082353 247:0.0039216 257:0.066667 258:0.61569 259:0.76471 260:0.99216 261:0.99216 262:0.99216 263:0.99216 264:0.99216 265:0.99216 266:0.99216 267:0.99216 268:0.99216 269:0.99216 270:0.99216 271:0.99216 272:0.99216 273:0.99216 274:0.99216 275:0.42353 285:0.21961 286:0.99216 287:0.99216 288:0.99216 289:0.99216 290:0.99216 291:0.99216 292:0.88235 293:0.87451 294:0.49412 295:0.48627 296:0.48627 297:0.48627 298:0.48627 299:0.83137 300:0.87451 301:0.98431 302:0.99216 303:0.9098 304:0.15686 313:0.50196 314:0.99216 315:0.99216 316:0.99216 317:0.89412 318:0.46275 319:0.27059 320:0.015686 329:0.30588 330:0.9098 331:0.99216 332:0.6 341:0.97647 342:0.37255 343:0.054902 344:0.054902 345:0.039216 357:0.023529 358:0.78431 359:0.99216 360:0.75686 369:0.99608 370:0.47451 385:0.28627 386:0.99216 387:0.99608 388:0.6 397:0.92157 398:0.94902 412:0.26275 413:0.80392 414:0.99216 415:0.99216 416:0.6 425:0.44706 426:0.98824 427:0.45098 428:0.0039216 439:0.25098 440:0.93725 441:0.99216 442:0.99216 443:0.92157 444:0.2 453:0.16863 454:0.95294 455:0.99216 456:0.22745 465:0.015686 466:0.3451 467:0.95294 468:0.99216 469:0.99608 470:0.99216 471:0.48235 482:0.61961 483:0.99216 484:0.8902 485:0.16471 492:0.039216 493:0.57647 494:0.99216 495:0.99216 496:0.99216 497:0.96471 498:0.50196 499:0.0078431 510:0.031373 511:0.89804 512:0.99216 513:0.89804 514:0.17255 519:0.0078431 520:0.72549 521:0.99216 522:0.99216 523:0.99216 524:0.90588 525:0.18431 539:0.17647 540:0.92941 541:0.99216 542:0.93725 543:0.59608 544:0.12157 545:0.10196 546:0.33333 547:0.80784 548:0.99608 549:0.99216 550:0.96863 551:0.66275 552:0.078431 568:0.3098 569:0.99216 570:0.99216 571:0.99216 572:0.99216 573:0.99216 574:0.99216 575:0.99216 576:0.99216 577:0.95294 578:0.21176 596:0.0078431 597:0.3451 598:0.8902 599:0.99216 600:0.99216 601:0.99216 602:0.99216 603:0.99216 604:0.61176 605:0.28627 626:0.17647 627:0.63922 628:0.63922 629:0.63922 630:0.63922 631:0.47843 
0.2391755297248065 0.6399512200792742 0.1543366765156382 0.001125760835389848 162:0.4902 163:0.56471 164:0.56471 186:0.062745 187:0.1451 188:0.34902 189:0.85098 190:0.96471 191:0.98431 192:0.98431 213:0.062745 214:0.66667 215:0.98431 216:0.99216 217:0.98431 218:0.98431 219:0.98431 220:0.98431 241:0.65098 242:0.98431 243:0.98431 244:0.99216 245:0.98431 246:0.98431 247:0.98431 248:0.98431 266:0.20784 267:0.28627 268:0.6902 269:0.99216 270:0.99216 271:0.99216 272:1 273:0.99216 274:0.99216 275:0.99216 276:0.99216 293:0.24706 294:0.86667 295:0.99216 296:0.98431 297:0.98431 298:0.98431 299:0.98431 300:0.99216 301:0.98431 302:0.98431 303:0.98431 304:0.98431 317:0.10588 318:0.34902 319:0.85098 320:0.85098 321:0.90588 322:0.98431 323:0.99216 324:0.98431 325:0.96471 326:0.84314 327:0.9451 328:0.99216 329:0.98431 330:0.98431 331:0.98431 332:0.88235 345:0.70588 346:0.99216 347:0.98431 348:0.98431 349:0.98431 350:0.98431 351:0.99216 352:0.98431 353:0.53725 354:0.18431 355:0.82745 356:0.99216 357:0.98431 358:0.98431 359:0.98431 360:0.27843 371:0.10588 372:0.70588 373:0.90588 374:0.99216 375:0.98431 376:0.98431 377:0.98431 378:0.98431 379:0.99216 380:0.57647 381:0.039216 382:0.12157 383:0.78431 384:0.99216 385:0.98431 386:0.98431 387:0.67843 388:0.078431 398:0.16471 399:0.89412 400:0.99216 401:0.99216 402:1 403:0.99216 404:0.94902 405:0.70588 406:0.2 409:0.043137 410:0.58824 411:0.99216 412:1 413:0.99216 414:0.64314 426:0.56471 427:0.98431 428:0.98431 429:0.98431 430:0.99216 431:0.65882 432:0.36078 437:0.54902 438:0.98431 439:0.98431 440:0.99216 441:0.98431 442:0.13725 454:0.56471 455:0.98431 456:0.98431 457:0.98431 458:0.64314 459:0.058824 463:0.34902 464:0.85098 465:0.96471 466:0.98431 467:0.98431 468:0.13725 469:0.13725 470:0.019608 481:0.12549 482:0.7451 483:0.98431 484:0.98431 485:0.67843 489:0.18431 490:0.42745 491:0.99216 492:0.98431 493:0.98431 494:0.98431 495:0.67843 509:0.28627 510:0.98431 511:0.98431 512:0.98431 513:0.27843 514:0.71373 515:0.70588 516:0.70588 517:0.82745 518:0.98431 519:0.99216 520:0.57647 521:0.27843 522:0.27843 523:0.078431 537:0.4902 538:0.99216 539:0.99216 540:0.99216 541:0.99216 542:1 543:0.99216 544:0.99216 545:0.99216 546:0.99216 547:0.91765 548:0.30196 565:0.99216 566:0.98431 567:0.98431 568:0.98431 569:0.98431 570:0.99216 571:0.98431 572:0.98431 573:0.98431 574:0.57647 575:0.30196 593:0.38431 594:0.98431 595:0.98431 596:0.98431 597:0.98431 598:0.99216 599:0.90196 600:0.84314 601:0.53725 602:0.039216 621:0.16471 622:0.55686 623:0.55686 624:0.55686 625:0.55686 626:0.56078 627:0.23922 
0.01446365156273734 0.289292057791581 0.1448798831419258 0 127:0.094118 128:0.17647 129:0.41961 130:0.094118 131:0.05098 153:0.31765 154:0.63137 155:0.99216 156:0.98824 157:0.98824 158:0.98824 159:0.82745 160:0.63529 161:0.31373 179:0.17647 180:0.39608 181:0.94118 182:0.98824 183:0.84314 184:0.71765 185:0.71765 186:0.71765 187:0.84314 188:0.99216 189:0.94118 190:0.39608 191:0.05098 206:0.60784 207:0.92549 208:0.98824 209:0.98824 210:0.65882 211:0.082353 215:0.082353 216:0.82745 217:0.98824 218:0.98824 219:0.3451 232:0.16863 233:0.86275 234:0.99216 235:0.98824 236:0.53333 237:0.086275 238:0.0078431 244:0.13333 245:0.98824 246:0.98824 247:0.79216 248:0.043137 258:0.019608 259:0.54118 260:0.99216 261:0.99216 262:1 263:0.56471 273:0.59216 274:0.99216 275:0.99216 276:0.37647 285:0.019608 286:0.32941 287:0.98824 288:0.98824 289:0.90588 290:0.76863 291:0.12941 301:0.18431 302:0.98824 303:0.98824 304:0.98824 313:0.21569 314:0.98824 315:0.98824 316:0.8902 317:0.18824 329:0.18431 330:0.98824 331:0.98824 332:0.98824 341:0.54118 342:0.98824 343:0.98824 344:0.25882 357:0.18431 358:0.98824 359:0.98824 360:0.98824 369:0.54118 370:0.98824 371:0.74118 372:0.015686 385:0.38824 386:0.98824 387:0.98824 388:0.98824 397:1 398:0.99216 399:0.72157 412:0.011765 413:0.66667 414:0.99216 415:0.99216 416:0.95294 425:0.99216 426:0.98824 427:0.71765 440:0.46275 441:0.98824 442:0.98824 443:0.98824 444:0.45882 453:0.66275 454:0.98824 455:0.79216 456:0.05098 467:0.4549 468:0.99216 469:0.98824 470:0.98824 471:0.6 472:0.023529 481:0.54118 482:0.98824 483:0.98824 484:0.17647 494:0.29804 495:0.93333 496:0.99216 497:0.92157 498:0.50196 499:0.035294 509:0.54118 510:0.98824 511:0.98824 512:0.17647 521:0.4549 522:0.97255 523:0.98824 524:0.99216 525:0.6 537:0.29804 538:0.99216 539:0.99216 540:0.82745 541:0.05098 547:0.011765 548:0.46275 549:0.99216 550:0.99216 551:0.99216 552:0.61961 565:0.035294 566:0.76078 567:0.98824 568:0.98824 569:0.37647 574:0.37255 575:0.66667 576:0.98824 577:0.98824 578:0.98824 579:0.41569 594:0.2549 595:0.91765 596:0.98824 597:0.86667 598:0.48235 599:0.27451 600:0.39608 601:0.72157 602:0.96471 603:0.99216 604:0.98824 605:0.79216 606:0.34902 607:0.023529 623:0.46275 624:0.92549 625:0.98824 626:0.99216 627:0.98824 628:0.98824 629:0.98824 630:0.98824 631:0.96078 632:0.5451 633:0.05098 652:0.07451 653:0.086275 654:0.33725 655:0.53725 656:0.53725 657:0.16863 658:0.086275 659:0.082353 
0 0 0.08225917437712192 0 129:0.17647 130:0.91765 131:0.99608 132:0.99608 133:1 134:0.61569 156:0.40392 157:0.9098 158:0.99216 159:0.99216 160:0.99216 161:0.99216 162:0.98824 163:0.61569 183:0.61961 184:0.98824 185:0.99216 186:0.99216 187:0.99216 188:0.99216 189:0.99216 190:0.99216 191:0.94118 209:0.4902 210:0.83922 211:0.99608 212:0.99216 213:0.99216 214:0.99216 215:0.9098 216:0.67843 217:0.89412 218:0.99216 219:0.98431 220:0.4 235:0.043137 236:0.32157 237:0.90588 238:0.99216 239:0.99608 240:0.99216 241:0.89412 242:0.72941 243:0.26275 245:0.26667 246:0.99216 247:0.99216 248:0.47059 263:0.27059 264:0.99216 265:0.99216 266:0.99216 267:0.99608 268:0.99216 269:0.51373 273:0.16078 274:0.99216 275:0.99216 276:0.47059 290:0.50588 291:0.89412 292:0.99216 293:0.99216 294:0.99216 295:0.58824 296:0.31373 297:0.031373 301:0.16078 302:0.99216 303:0.99216 304:0.47059 317:0.22353 318:0.89804 319:0.99216 320:0.99216 321:0.98824 322:0.88627 329:0.49412 330:0.99216 331:0.99216 332:0.47059 344:0.18431 345:0.90588 346:0.99216 347:0.99216 348:0.99216 349:0.91373 357:0.68235 358:0.99216 359:0.99216 360:0.47059 372:0.59216 373:0.99216 374:0.99216 375:0.99216 376:0.93725 377:0.19608 384:0.11373 385:0.84706 386:0.99216 387:0.96471 388:0.22353 399:0.37255 400:0.99608 401:0.99608 402:0.99608 403:0.99608 404:0.64314 412:0.73725 413:1 414:1 415:0.69412 426:0.18039 427:0.9098 428:0.99216 429:0.99216 430:0.99216 431:0.3451 432:0.019608 439:0.47451 440:0.98039 441:0.99216 442:0.99216 443:0.41961 454:0.61569 455:0.99216 456:0.99216 457:0.99216 458:0.60784 459:0.031373 464:0.15686 465:0.36863 466:0.81176 467:0.97255 468:0.99216 469:0.99216 470:0.70196 471:0.043137 482:0.9451 483:0.99216 484:0.99216 485:0.9098 486:0.17647 490:0.16863 491:0.31765 492:0.87843 493:0.99216 494:0.99216 495:0.99216 496:0.99216 497:0.6902 498:0.058824 509:0.37647 510:0.98431 511:0.99216 512:0.99216 513:0.31765 514:0.058824 515:0.34902 516:0.78824 517:0.78824 518:0.89804 519:0.99608 520:0.99216 521:0.99216 522:0.99216 523:0.92157 524:0.3451 525:0.066667 537:0.86275 538:0.99216 539:0.99216 540:0.99216 541:0.78824 542:0.78824 543:0.99216 544:0.99216 545:0.99216 546:0.99216 547:0.99608 548:0.99216 549:0.80392 550:0.78039 551:0.30196 565:1 566:0.99216 567:0.99216 568:0.99216 569:0.99216 570:0.99216 571:0.99216 572:0.99216 573:0.99216 574:0.99216 575:0.92157 576:0.61176 577:0.031373 593:1 594:0.99216 595:0.99216 596:0.99216 597:0.99216 598:0.99216 599:0.92157 600:0.55294 601:0.36471 602:0.36471 603:0.19216 621:0.96863 622:0.99216 623:0.99216 624:0.94902 625:0.8 626:0.41961 627:0.13333 649:0.47451 650:0.99216 651:0.99216 652:0.15294 
0.066947057416468 0.2050522166182232 0.2116406516290308 0.1557652599377789 176:0.047059 177:0.35686 178:0.35686 179:0.35686 180:0.94118 181:1 182:0.99608 183:0.99608 184:0.7451 185:0.35686 186:0.35686 187:0.070588 203:0.027451 204:0.60392 205:0.99216 206:0.99216 207:0.99216 208:0.99216 209:0.99216 210:0.99216 211:0.99216 212:0.99216 213:0.99216 214:0.99216 215:0.6549 216:0.066667 217:0.011765 230:0.30196 231:0.65882 232:0.99216 233:0.99216 234:0.99216 235:0.99216 236:0.99216 237:0.99216 238:0.99216 239:0.99216 240:0.99216 241:0.99216 242:0.99216 243:0.99216 244:0.99216 245:0.39608 257:0.27843 258:0.92941 259:0.99216 260:0.99216 261:0.99216 262:0.99216 263:0.99216 264:0.95686 265:0.86275 266:0.86275 267:0.86667 268:0.99216 269:0.99216 270:0.99216 271:0.99216 272:0.99216 273:0.94118 274:0.32549 285:0.35686 286:0.99216 287:0.99216 288:0.99216 289:0.99216 290:0.99216 291:0.72549 292:0.38039 295:0.019608 296:0.50588 297:0.50588 298:0.72941 299:0.99216 300:0.99216 301:0.99216 302:0.69412 303:0.031373 313:0.89804 314:0.99216 315:0.99216 316:0.99216 317:0.99216 318:0.95294 319:0.36078 326:0.070588 327:0.7098 328:0.99216 329:0.99216 330:0.99216 331:0.6 341:0.99608 342:0.99216 343:0.99216 344:0.99216 345:0.99216 346:0.79608 355:0.07451 356:0.72941 357:0.99216 358:0.99216 359:0.70196 369:0.83137 370:0.99216 371:0.99216 372:0.99216 373:0.99216 374:0.79608 384:0.38431 385:0.96078 386:0.99216 387:0.96471 388:0.31765 397:0.13725 398:0.42353 399:0.99216 400:0.99216 401:0.99216 402:0.91765 403:0.27843 413:0.87059 414:0.99216 415:0.99216 416:0.34902 426:0.0039216 427:0.43529 428:0.99216 429:0.99216 430:0.99216 431:0.44706 441:0.87059 442:0.99216 443:0.99216 444:0.97647 455:0.13725 456:0.40784 457:0.99216 458:0.99216 459:0.81569 460:0.062745 469:0.43137 470:0.99216 471:0.99216 472:0.99216 484:0.12941 485:0.99216 486:0.99216 487:0.99216 488:0.094118 497:0.22745 498:0.99216 499:0.99216 500:0.99216 512:0.035294 513:0.61176 514:0.99216 515:0.99216 516:0.59608 517:0.039216 525:0.22745 526:0.99216 527:0.99216 528:0.99216 541:0.48627 542:0.99216 543:0.99216 544:0.99216 545:0.65882 546:0.011765 553:0.22745 554:0.99216 555:0.99216 556:0.99216 569:0.094118 570:0.76078 571:0.99216 572:0.99216 573:0.99216 574:0.6 575:0.054902 581:0.74902 582:0.99216 583:0.99216 584:0.88627 598:0.094118 599:0.76078 600:0.99216 601:0.99216 602:0.99216 603:0.66667 604:0.51373 605:0.46667 608:0.27059 609:0.93333 610:0.99216 611:0.99216 612:0.34902 627:0.070588 628:0.76471 629:0.99216 630:0.99216 631:0.99216 632:0.99216 633:0.98039 634:0.87059 635:0.87059 636:0.93333 637:0.99216 638:0.99216 639:0.78039 640:0.27059 656:0.1098 657:0.41569 658:0.97647 659:0.99216 660:0.99216 661:0.99216 662:0.99216 663:0.99216 664:0.99216 665:0.99216 666:0.99216 667:0.058824 686:0.058824 687:0.082353 688:0.70196 689:0.70196 690:0.70196 691:0.93725 692:0.83922 693:0.55294 694:0.43529 695:0.043137 719:0.28627 720:0.16863 
0.1262873422069012 0.5940691938171073 0.2344471109279757 0.1644804940023326 131:0.24314 132:0.42745 133:0.62745 134:0.84706 135:0.95686 136:0.39608 157:0.13333 158:0.76471 159:0.98824 160:0.99608 161:0.99608 162:0.99608 163:0.99608 164:0.62353 183:0.039216 184:0.55686 185:0.9451 186:0.99608 187:0.99608 188:0.96471 189:0.95686 190:0.99216 191:0.99608 192:0.62353 210:0.11373 211:0.99608 212:0.99608 213:0.99608 214:0.90588 215:0.49412 216:0.062745 218:0.96078 219:0.99608 220:0.51373 237:0.38039 238:0.94902 239:0.99608 240:0.96863 241:0.37255 242:0.05098 245:0.3098 246:0.99216 247:0.97255 248:0.21176 264:0.37647 265:0.96863 266:0.99608 267:0.82745 268:0.19608 272:0.035294 273:0.76471 274:0.99608 275:0.8549 291:0.23922 292:0.98431 293:0.99608 294:0.60784 300:0.33725 301:0.99608 302:0.99608 303:0.39216 318:0.047059 319:0.86275 320:0.99608 321:0.7098 322:0.10588 328:0.52549 329:0.99608 330:0.86275 331:0.058824 345:0.090196 346:0.6549 347:0.99608 348:0.88627 349:0.12941 355:0.27059 356:0.90196 357:0.99608 358:0.27843 373:0.46275 374:0.99608 375:0.99608 376:0.36471 382:0.11373 383:0.71765 384:0.99608 385:0.87059 386:0.023529 400:0.39608 401:0.99608 402:0.99608 403:0.56863 409:0.011765 410:0.61569 411:1 412:0.98039 413:0.21961 427:0.090196 428:0.95686 429:0.99608 430:0.87451 431:0.035294 437:0.14902 438:0.99608 439:0.96863 440:0.37255 454:0.0078431 455:0.56471 456:0.99608 457:0.98824 458:0.25882 464:0.090196 465:0.86667 466:0.99608 467:0.64314 482:0.14902 483:0.99608 484:0.99608 485:0.56078 491:0.17647 492:0.95686 493:0.99608 494:0.90588 495:0.05098 509:0.05098 510:0.8549 511:0.99608 512:0.82745 513:0.058824 518:0.070588 519:0.80784 520:0.99608 521:0.90588 522:0.17255 537:0.42745 538:0.99608 539:0.99608 540:0.4 545:0.28627 546:0.87843 547:0.99608 548:0.90196 549:0.19216 565:0.62745 566:0.99608 567:0.99608 568:0.4549 571:0.23922 572:0.6902 573:0.95294 574:0.99608 575:0.6902 576:0.14118 593:0.62745 594:0.99608 595:0.99608 596:0.98431 597:0.96078 598:0.96078 599:0.98431 600:0.99608 601:0.99608 602:0.6902 603:0.015686 621:0.42353 622:0.98431 623:0.99608 624:0.99608 625:0.99608 626:0.99608 627:0.99608 628:0.66667 629:0.33725 630:0.039216 650:0.55686 651:0.62353 652:0.73333 653:0.92549 654:0.62353 655:0.36471 656:0.011765 
0.1481187829086074 0.826396765038797 0.3377098244200363 0.4812795849119852 132:0.082353 133:0.6902 134:0.6902 135:0.23922 159:0.28235 160:0.9451 161:0.99216 162:0.99216 163:0.96078 164:0.59216 185:0.12549 186:0.77647 187:0.95294 188:0.99608 189:0.99216 190:0.99216 191:0.99216 192:0.63529 212:0.27059 213:0.83529 214:0.99216 215:0.99216 216:0.81961 217:0.23529 218:0.88235 219:0.99216 220:0.63529 239:0.33333 240:0.97255 241:0.99216 242:0.99216 243:0.48627 245:0.078431 246:0.90196 247:0.99216 248:0.63529 265:0.14902 266:0.89412 267:1 268:0.99608 269:0.95294 270:0.40784 273:0.5451 274:0.99608 275:0.99608 276:0.41176 292:0.36471 293:0.74902 294:0.99216 295:0.99608 296:0.66275 297:0.23529 300:0.16471 301:0.96078 302:0.99216 303:0.72157 304:0.019608 318:0.1451 319:0.57255 320:0.97255 321:0.99216 322:0.99216 323:0.62353 324:0.086275 328:0.63922 329:0.99216 330:0.91765 331:0.15686 345:0.15686 346:0.71765 347:0.99216 348:0.99216 349:0.80784 350:0.43922 355:0.3098 356:0.99608 357:0.99216 358:0.67059 372:0.027451 373:0.7098 374:0.99608 375:0.99216 376:0.81176 377:0.23922 382:0.18039 383:0.9098 384:0.99608 385:0.78824 386:0.090196 400:0.40392 401:0.99608 402:1 403:0.75294 404:0.05098 409:0.1451 410:0.84314 411:0.99608 412:0.91765 413:0.17647 427:0.16078 428:0.90196 429:0.99216 430:0.75294 431:0.054902 436:0.047059 437:0.85882 438:0.99216 439:0.91373 440:0.17647 454:0.031373 455:0.69412 456:0.99216 457:0.94118 458:0.18039 463:0.24706 464:0.85882 465:0.99216 466:0.92941 467:0.41961 481:0.023529 482:0.52157 483:0.99216 484:0.96078 485:0.23922 489:0.0078431 490:0.2 491:0.99608 492:0.99216 493:0.90588 494:0.19608 509:0.28627 510:0.99216 511:0.99216 512:0.66275 517:0.2 518:0.99216 519:0.99608 520:0.91373 521:0.19216 537:0.51373 538:0.99608 539:0.99608 540:0.21176 543:0.062745 544:0.76863 545:0.99608 546:0.99608 547:0.91765 548:0.17647 565:0.63922 566:0.99216 567:0.85882 568:0.015686 569:0.078431 570:0.67059 571:0.93725 572:0.99216 573:0.99216 574:0.7098 575:0.05098 593:0.33725 594:0.99216 595:0.97255 596:0.85098 597:0.90196 598:0.99608 599:0.99216 600:0.96863 601:0.41961 602:0.043137 621:0.31373 622:0.99216 623:0.99216 624:0.99216 625:0.99216 626:0.94902 627:0.38824 628:0.18039 649:0.28627 650:0.96863 651:0.99216 652:0.68627 653:0.28235 654:0.10196 
0.3340983814589931 1.129147661862803 0.5823577032635456 0.7607043674120761 161:0.05098 162:0.36863 163:0.27059 187:0.3451 188:0.72157 189:0.98431 190:0.99608 191:0.99608 213:0.047059 214:0.4902 215:0.95294 216:0.99608 217:0.99608 218:0.99608 219:0.99608 239:0.019608 240:0.31765 241:0.78431 242:0.99608 243:0.97255 244:0.60784 245:0.71373 246:0.99608 247:0.85882 266:0.023529 267:0.4 268:0.92157 269:0.99608 270:0.93333 271:0.21961 272:0.035294 273:0.88235 274:0.99608 275:0.41961 293:0.16471 294:0.66275 295:0.99608 296:0.96863 297:0.57255 298:0.23137 300:0.43137 301:0.99608 302:0.99608 303:0.086275 319:0.019608 320:0.56863 321:0.96471 322:0.99608 323:0.90196 324:0.30588 327:0.039216 328:0.88235 329:0.99608 330:0.69804 331:0.0039216 346:0.019608 347:0.49412 348:0.99608 349:0.99608 350:0.9098 351:0.30196 355:0.58431 356:0.99608 357:0.99608 358:0.2 373:0.019608 374:0.59608 375:0.99608 376:0.99608 377:0.63137 378:0.13333 382:0.18824 383:0.96078 384:0.99608 385:0.58039 386:0.0078431 401:0.65882 402:0.99608 403:0.92941 404:0.21176 405:0.027451 410:0.7451 411:0.99608 412:0.85098 413:0.070588 427:0.039216 428:0.67451 429:0.96863 430:0.97255 431:0.57255 436:0.047059 437:0.58039 438:0.98431 439:0.99608 440:0.25882 455:0.43529 456:0.99608 457:0.97647 458:0.35686 463:0.2549 464:0.8 465:0.99608 466:0.99608 467:0.4 468:0.0078431 480:0.094118 481:0.68235 482:0.80784 483:0.97255 484:0.99608 485:0.70588 486:0.24706 487:0.21569 488:0.2 489:0.30196 490:0.63137 491:0.95294 492:0.99608 493:0.99608 494:0.48235 495:0.035294 508:0.94902 509:0.99608 510:0.99608 511:0.99608 512:0.99608 513:0.99608 514:0.99608 515:0.98824 516:0.98431 517:0.99608 518:0.99608 519:0.99608 520:0.78431 521:0.30196 522:0.039216 536:0.7098 537:0.90588 538:0.8 539:0.81176 540:0.92549 541:0.99608 542:0.99608 543:0.99608 544:0.99608 545:0.99608 546:0.94902 547:0.68235 548:0.13725 564:0.019608 565:0.15294 566:0.1098 567:0.015686 568:0.035294 569:0.18824 570:0.37647 571:0.37647 572:0.32941 573:0.047059 574:0.039216 575:0.015686 
0 0.2188134433220349 0 0 157:0.062745 158:0.41569 159:0.49412 160:0.63137 161:0.34118 162:0.043137 183:0.15686 184:0.61569 185:0.87843 186:0.99608 187:0.99608 188:0.99608 189:0.98824 190:0.83137 191:0.49804 209:0.16078 210:0.79608 211:0.98431 212:0.99608 213:0.99608 214:0.99608 215:0.99608 216:0.99608 217:0.99608 218:0.99608 219:0.94118 220:0.37647 236:0.1098 237:0.83922 238:0.99608 239:0.99608 240:0.99608 241:0.97647 242:0.74118 243:0.52157 244:0.38431 245:0.53333 246:0.99608 247:0.99608 248:0.79608 263:0.6902 264:0.94902 265:0.99608 266:0.99608 267:0.99608 268:0.76078 269:0.25882 273:0.019608 274:0.99608 275:0.99608 276:0.99608 289:0.18039 290:0.48235 291:0.98039 292:0.99608 293:0.99608 294:0.87451 295:0.6 296:0.011765 301:0.46275 302:0.99608 303:0.99608 304:0.99608 316:0.019608 317:0.85882 318:0.99608 319:0.99608 320:0.99608 321:0.8 322:0.2549 328:0.011765 329:0.78824 330:0.99608 331:0.99608 332:0.5098 344:0.61176 345:0.99608 346:0.99608 347:0.99608 348:0.84706 349:0.20392 356:0.39608 357:0.99608 358:0.99608 359:0.83137 360:0.16471 370:0.13725 371:0.42353 372:0.98824 373:0.99608 374:0.99608 375:0.81176 376:0.15686 383:0.054902 384:0.92157 385:0.99608 386:0.99608 387:0.27451 397:0.015686 398:0.65882 399:0.99608 400:0.99608 401:0.96863 402:0.52157 403:0.019608 410:0.019608 411:0.73333 412:0.99608 413:0.99608 414:0.61569 415:0.023529 425:0.24706 426:0.99608 427:0.99608 428:0.99608 429:0.41176 437:0.054902 438:0.61176 439:0.99608 440:0.99608 441:0.98039 442:0.11373 453:0.8 454:0.99608 455:0.99608 456:0.95686 457:0.12549 464:0.054902 465:0.59608 466:0.99608 467:0.99608 468:0.99608 469:0.56078 481:1 482:0.99608 483:0.99608 484:0.61176 489:0.015686 490:0.023529 491:0.36863 492:0.85098 493:0.99608 494:0.99608 495:0.99608 496:0.76078 497:0.13333 509:0.8902 510:0.99608 511:0.99608 512:0.50196 513:0.36078 514:0.1098 515:0.55686 516:0.42745 517:0.67451 518:0.85098 519:0.99608 520:0.99608 521:0.99608 522:0.99608 523:0.91373 524:0.066667 537:0.56471 538:0.99608 539:0.99608 540:0.97255 541:0.97255 542:0.93725 543:0.99216 544:0.99608 545:0.99608 546:0.99608 547:0.99608 548:0.99608 549:0.96863 550:0.82745 551:0.19216 565:0.14902 566:0.9451 567:0.99608 568:0.99608 569:0.99608 570:0.99608 571:0.99608 572:0.99608 573:0.99608 574:0.98824 575:0.98039 576:0.86275 577:0.35686 594:0.49804 595:0.92549 596:0.89412 597:0.96863 598:0.67843 599:0.79608 600:0.87451 601:0.47059 602:0.22353 603:0.066667 623:0.082353 624:0.15686 625:0.29804 626:0.039216 627:0.027451 628:0.062745 
0 0.01141640231712177 0.07805022072303838 0.2336040518292877 135:0.13725 136:0.57647 161:0.015686 162:0.56863 163:0.98824 164:0.99608 187:0.019608 188:0.34902 189:0.8 190:0.99608 191:0.99608 192:0.71765 214:0.25882 215:0.77255 216:0.99608 217:0.99608 218:0.85098 219:0.27059 220:0.0039216 240:0.11765 241:0.71373 242:0.97255 243:0.99608 244:0.97255 245:0.50196 246:0.094118 266:0.019608 267:0.55686 268:0.8902 269:0.99608 270:0.99608 271:0.73333 272:0.16863 276:0.5451 293:0.15686 294:0.76471 295:0.99608 296:0.99608 297:0.8549 298:0.25098 299:0.023529 303:0.2902 304:0.99608 320:0.31373 321:0.96078 322:0.99608 323:0.99608 324:0.63529 325:0.090196 330:0.047059 331:0.9098 332:0.99608 346:0.10588 347:0.7451 348:0.96078 349:0.99608 350:0.97255 351:0.39216 352:0.027451 357:0.047059 358:0.73333 359:0.99608 360:0.9451 373:0.40784 374:0.90588 375:0.99608 376:0.99608 377:0.64706 378:0.13725 384:0.05098 385:0.73333 386:0.99608 387:0.99608 388:0.33725 399:0.011765 400:0.56471 401:0.96078 402:0.99608 403:0.97647 404:0.39216 405:0.031373 411:0.05098 412:0.72941 413:0.99608 414:0.99608 415:0.49804 416:0.0039216 427:0.40784 428:0.99608 429:0.99608 430:0.87451 431:0.18824 438:0.05098 439:0.72941 440:0.99608 441:0.99608 442:0.49412 443:0.0039216 454:0.4 455:0.96471 456:0.99608 457:0.87451 458:0.1451 465:0.19608 466:0.87451 467:0.99608 468:0.99608 469:0.38431 470:0.0078431 481:0.0078431 482:0.76471 483:0.99608 484:0.87843 485:0.1451 491:0.047059 492:0.48627 493:0.95294 494:0.99608 495:0.93725 496:0.25882 497:0.0078431 509:0.61961 510:0.99608 511:0.98431 512:0.34118 517:0.12941 518:0.58431 519:0.93333 520:0.99608 521:0.99608 522:0.77647 523:0.094118 537:0.98039 538:0.99608 539:0.96078 540:0.28235 541:0.41569 542:0.63922 543:0.93725 544:0.93725 545:0.96471 546:0.99608 547:0.99608 548:0.94118 549:0.47451 550:0.031373 565:0.38431 566:0.90588 567:0.99608 568:0.99608 569:0.99608 570:0.99608 571:0.99608 572:1 573:0.99608 574:0.70196 575:0.10196 576:0.039216 594:0.15294 595:0.68627 596:0.68627 597:0.68627 598:0.68627 599:0.54118 600:0.20784 601:0.031373 602:0.0078431 
0 0 0 0.07052572913224454 134:0.086275 135:0.015686 160:0.13333 161:0.31765 162:0.87451 163:0.9098 164:0.6 185:0.10588 186:0.49412 187:0.66275 188:0.92941 189:0.99608 190:0.99608 191:0.82745 192:0.94902 212:0.32549 213:0.89804 214:0.99608 215:0.94902 216:0.70588 217:0.47843 218:0.011765 219:0.023529 220:0.84706 238:0.047059 239:0.62745 240:0.97255 241:0.99608 242:0.71373 243:0.22353 244:0.039216 247:0.19216 248:0.99608 265:0.19216 266:0.84706 267:0.99608 268:0.94118 269:0.6 270:0.086275 275:0.6549 276:0.99608 292:0.23137 293:0.92549 294:0.99608 295:0.87059 296:0.43529 297:0.0078431 302:0.17647 303:0.97255 304:0.99608 319:0.1098 320:0.80784 321:0.99608 322:0.80784 323:0.19608 329:0.011765 330:0.78431 331:0.99608 332:0.99608 346:0.058824 347:0.85882 348:0.99608 349:0.81176 350:0.078431 357:0.44314 358:0.99608 359:0.99608 360:0.56471 373:0.10588 374:0.8549 375:0.99608 376:0.73333 377:0.078431 384:0.15294 385:0.93333 386:0.99608 387:0.67843 388:0.019608 400:0.054902 401:0.73333 402:0.99608 403:0.93725 404:0.12157 411:0.023529 412:0.81961 413:0.99608 414:0.92157 415:0.094118 428:0.64314 429:0.99608 430:0.94118 431:0.22353 438:0.0078431 439:0.59216 440:0.99608 441:0.98824 442:0.19608 455:0.46667 456:0.99608 457:0.98824 458:0.35686 466:0.4 467:0.99608 468:0.99608 469:0.61176 482:0.078431 483:0.96863 484:0.99608 485:0.61176 493:0.23137 494:0.8902 495:0.99608 496:0.6902 497:0.1098 510:0.4902 511:0.99608 512:0.85882 513:0.12549 520:0.16863 521:0.84706 522:0.99608 523:0.83922 524:0.10196 537:0.14902 538:0.9451 539:0.99608 540:0.27451 547:0.28235 548:0.9451 549:0.99608 550:0.85098 551:0.16863 565:0.75686 566:0.99608 567:0.62353 568:0.054902 569:0.19608 570:0.22745 571:0.16863 572:0.0078431 573:0.1451 574:0.67451 575:0.97255 576:0.99216 577:0.6902 578:0.18431 593:1 594:0.99608 595:0.33725 596:0.69412 597:0.99608 598:0.99608 599:0.81569 600:0.82353 601:0.99608 602:0.99608 603:0.99608 604:0.59608 605:0.07451 621:0.40392 622:0.90196 623:0.86275 624:0.89804 625:0.92549 626:0.97647 627:0.99608 628:0.86275 629:0.89804 630:0.6 631:0.27059 632:0.019608 650:0.05098 651:0.05098 653:0.05098 654:0.14118 655:0.17647 656:0.070588 
0.01999824868756653 0.1005712926098666 0 0.07702716235961127 180:0.17647 181:0.32549 182:0.32549 183:0.16471 205:0.078431 206:0.38824 207:0.71765 208:0.99216 209:0.99608 210:0.99608 211:0.99216 212:0.98431 213:0.98431 214:0.98431 215:0.98431 216:0.59216 217:0.082353 231:0.086275 232:0.38431 233:0.95294 234:0.99608 235:0.99608 236:0.99608 237:0.74902 238:0.7098 239:0.80784 240:0.84706 241:0.99608 242:0.99608 243:0.99608 244:0.99608 245:0.97647 246:0.58824 258:0.27059 259:0.9451 260:0.99608 261:0.99608 262:0.83922 263:0.65098 264:0.20392 265:0.0078431 267:0.019608 268:0.023529 269:0.05098 270:0.05098 271:0.078431 272:0.54118 273:0.99608 274:0.99608 275:0.58824 285:0.58824 286:0.99608 287:0.99608 288:0.92941 289:0.54118 290:0.058824 300:0.0078431 301:0.21569 302:0.92549 303:0.99608 304:0.58824 313:0.76078 314:0.76078 315:0.69412 316:0.77647 317:0.015686 330:0.090196 331:0.99608 332:0.99608 343:0.93333 344:0.93725 345:0.05098 358:0.0039216 359:0.65098 360:0.99608 371:0.96863 372:0.78039 373:0.015686 387:0.2902 388:0.99608 399:0.96863 400:0.99608 401:0.24706 415:0.019608 416:0.99608 427:0.61961 428:0.99608 429:0.63529 443:0.078431 444:0.99608 455:0.14902 456:0.97647 457:0.72549 458:0.066667 471:0.36078 472:0.99608 484:0.62745 485:0.99608 486:0.8902 487:0.12941 499:0.51765 500:0.99608 512:0.14902 513:0.92941 514:0.99608 515:0.50196 516:0.054902 526:0.0078431 527:0.72941 528:0.99608 541:0.41961 542:0.98824 543:0.99608 544:0.81176 545:0.094118 554:0.18824 555:0.99608 556:0.73333 570:0.72157 571:0.98824 572:0.99608 573:0.69412 574:0.12157 581:0.0078431 582:0.6549 583:0.99608 584:0.37255 599:0.49412 600:0.96863 601:0.99608 602:0.95686 603:0.26667 609:0.32941 610:0.99608 611:0.70196 628:0.21569 629:0.9098 630:0.99608 631:0.81176 632:0.090196 635:0.05098 636:0.41569 637:0.92549 638:0.83922 639:0.082353 657:0.054902 658:0.7451 659:0.98039 660:0.86275 661:0.71373 662:0.71373 663:0.83529 664:0.99608 665:0.82353 666:0.18039 687:0.31765 688:0.91765 689:0.98039 690:0.9451 691:0.50196 692:0.30588 693:0.082353 
0 0 0 0.05668466856761122 238:0.07451 239:0.22745 240:0.22745 241:0.22745 242:0.019608 262:0.047059 263:0.098039 264:0.17647 265:0.50196 266:0.89412 267:0.99608 268:0.99608 269:0.99608 270:0.85882 271:0.84706 272:0.84706 273:0.50588 274:0.32549 275:0.070588 289:0.42353 290:0.84706 291:0.99608 292:0.99608 293:0.99608 294:0.99608 295:0.99608 296:0.99608 297:0.99608 298:0.99608 299:0.99608 300:0.99608 301:0.99608 302:0.99608 303:0.92157 304:0.20784 316:0.34902 317:0.99216 318:0.99608 319:0.99608 320:0.95294 321:0.61569 322:0.41176 323:0.34118 324:0.035294 325:0.035294 326:0.035294 327:0.035294 328:0.14118 329:0.47059 330:0.87059 331:0.99608 332:0.97647 333:0.4549 343:0.011765 344:0.54902 345:0.99608 346:0.95686 347:0.51765 348:0.13333 358:0.066667 359:0.52549 360:0.99608 361:0.92941 371:0.38039 372:0.99608 373:0.92157 374:0.21569 387:0.082353 388:0.91765 389:0.99608 398:0.14118 399:0.91765 400:0.99608 401:0.2 415:0.46667 416:0.98824 417:0.99608 426:0.57255 427:0.99608 428:0.68235 429:0.0039216 441:0.011765 442:0.35686 443:0.92941 444:0.99608 445:0.52157 454:0.99608 455:0.99608 456:0.26275 468:0.086275 469:0.54902 470:0.99608 471:0.99608 472:0.67451 473:0.078431 482:1 483:0.9098 484:0.12941 494:0.094118 495:0.32941 496:0.81569 497:0.99608 498:0.92549 499:0.48627 500:0.011765 510:0.98431 511:0.99608 512:0.78431 513:0.047059 514:0.023529 518:0.027451 519:0.039216 520:0.039216 521:0.41176 522:0.90196 523:0.99608 524:0.98431 525:0.89804 526:0.20784 538:0.37255 539:0.99608 540:0.99608 541:0.99608 542:0.83529 543:0.65882 544:0.65882 545:0.65882 546:0.89412 547:0.99608 548:0.99608 549:0.99608 550:0.99608 551:0.98431 552:0.36863 566:0.023529 567:0.13725 568:0.7451 569:0.99216 570:0.99608 571:0.99608 572:0.99608 573:0.99608 574:0.99608 575:0.96471 576:0.82353 577:0.35686 578:0.094118 579:0.090196 597:0.21961 598:0.22353 599:0.22353 600:0.22353 601:0.22353 602:0.22353 603:0.18431 
0.1133694470281617 0.2022789343169668 0.3154925781258671 0.3126953979259073 158:0.11373 159:0.44706 160:1 161:1 162:1 163:0.33725 184:0.11373 185:0.66667 186:1 187:1 188:0.66667 189:0.77647 190:1 191:1 211:0.44706 212:1 213:1 214:0.33725 218:0.77647 219:1 220:0.33725 238:0.66667 239:1 240:0.88627 241:0.11373 246:0.33725 247:1 248:0.66667 265:0.66667 266:1 267:0.88627 274:0.33725 275:1 276:0.66667 292:0.77647 293:1 294:1 295:0.77647 302:0.44706 303:1 304:0.44706 319:0.44706 320:1 321:1 322:1 323:1 324:0.55294 330:0.66667 331:1 332:0.22353 346:0.44706 347:1 348:1 349:0.33725 350:0.11373 351:0.88627 352:0.77647 357:0.11373 358:1 359:0.88627 373:0.33725 374:1 375:1 376:0.55294 379:0.22353 380:0.77647 385:0.44706 386:1 387:0.55294 401:0.44706 402:1 403:0.88627 413:0.88627 414:1 428:0.33725 429:1 430:1 431:0.22353 440:0.44706 441:1 442:0.55294 456:0.77647 457:1 458:0.88627 459:0.33725 467:0.11373 468:1 469:0.88627 470:0.11373 483:0.44706 484:1 485:1 486:1 487:0.44706 494:0.22353 495:1 496:0.88627 511:0.77647 512:1 513:0.55294 514:0.11373 521:0.33725 522:1 523:0.88627 524:0.11373 538:0.55294 539:1 540:0.55294 547:0.11373 548:0.77647 549:1 550:0.66667 565:0.11373 566:1 567:0.88627 573:0.11373 574:0.66667 575:1 576:0.88627 577:0.11373 593:0.44706 594:1 595:0.33725 599:0.11373 600:0.77647 601:1 602:1 603:0.33725 621:0.66667 622:1 626:0.44706 627:1 628:0.88627 629:0.44706 649:0.66667 650:1 651:0.44706 652:0.44706 653:1 654:0.88627 655:0.33725 677:0.22353 678:1 679:1 680:0.88627 681:0.33725 
0 0.09121318044508833 0 0 153:0.26275 154:0.62353 155:1 156:0.99608 157:0.99608 158:0.99608 159:0.78824 160:0.59608 161:0.078431 180:0.44706 181:0.97647 182:0.99216 183:0.99608 184:0.91373 185:0.84314 186:0.84314 187:0.92549 188:0.99216 189:0.52941 190:0.0078431 205:0.0078431 206:0.34118 207:0.66275 208:0.98431 209:0.99216 210:0.82745 211:0.49412 212:0.10588 215:0.12157 216:0.54902 217:0.99216 218:0.18431 232:0.2 233:0.69804 234:0.99216 235:0.99216 236:0.70588 237:0.51765 238:0.086275 244:0.047059 245:0.88235 246:0.53725 258:0.027451 259:0.33725 260:0.84706 261:0.99216 262:0.97647 263:0.56078 264:0.0039216 270:0.054902 271:0.66275 272:0.72157 273:0.85882 274:0.32941 286:0.34118 287:0.99216 288:0.99216 289:0.97647 290:0.30196 298:0.59608 299:0.97647 300:0.94902 301:0.74118 302:0.070588 314:0.88235 315:0.99216 316:0.99216 317:0.42745 326:0.66275 327:0.42745 328:0.32157 329:0.99216 330:0.76863 341:0.25098 342:0.98824 343:0.99216 344:0.62353 345:0.0039216 354:0.29804 355:0.0039216 356:0.031373 357:0.81569 358:0.98431 359:0.22353 369:0.25882 370:0.99216 371:0.99216 372:0.32941 385:0.65882 386:0.99216 387:0.82745 397:0.066667 398:0.9098 399:0.96471 400:0.086275 413:0.21176 414:0.97647 415:0.96078 416:0.19216 426:0.6549 427:0.99608 428:0.33333 442:0.96078 443:0.99608 444:0.25882 454:0.32549 455:0.99216 456:0.51765 470:0.95686 471:0.99216 472:0.2549 482:0.090196 483:0.90196 484:0.81569 485:0.031373 497:0.13725 498:0.97255 499:0.99216 500:0.2549 511:0.52549 512:0.99216 513:0.42745 525:0.44314 526:0.99216 527:0.99216 528:0.2549 539:0.058824 540:0.92941 541:0.97647 542:0.30588 552:0.015686 553:0.75294 554:0.99216 555:0.96863 556:0.20784 568:0.34118 569:0.98431 570:0.94902 571:0.16078 579:0.043137 580:0.55294 581:0.99216 582:0.99216 583:0.71373 597:0.65882 598:0.99216 599:0.89412 600:0.14902 606:0.10196 607:0.83529 608:0.99216 609:0.99216 610:0.91765 611:0.20784 625:0.019608 626:0.65098 627:0.99216 628:0.97255 629:0.91765 630:0.31765 631:0.082353 632:0.11765 633:0.38824 634:0.96863 635:0.99216 636:0.99216 637:0.99216 638:0.058824 654:0.011765 655:0.27059 656:0.89412 657:0.99216 658:0.99216 659:0.90196 660:0.92157 661:0.99216 662:0.99216 663:0.99216 664:0.98431 665:0.49804 666:0.0078431 684:0.058824 685:0.43529 686:0.62353 687:0.99608 688:0.99216 689:0.97647 690:0.62353 691:0.28235 692:0.23922 
0.2913570455120989 0.4932824683128205 0.6626584808057733 0.2174269748524273 158:0.35294 159:0.83137 160:0.99608 161:0.99608 162:1 163:0.98431 164:0.3098 184:0.078431 185:0.8 186:0.99216 187:0.85098 188:0.43529 189:0.55686 190:0.99608 191:0.99608 192:0.98431 211:0.16078 212:0.92549 213:0.99608 214:0.6 215:0.035294 217:0.0078431 218:0.77255 219:0.99608 220:0.75686 238:0.19216 239:0.96471 240:0.99608 241:0.51373 242:0.047059 246:0.75686 247:0.99608 248:0.80392 265:0.15294 266:0.90588 267:0.99608 268:0.57647 269:0.011765 273:0.090196 274:0.96078 275:0.99608 276:0.65098 292:0.22745 293:0.94902 294:0.99608 295:0.57255 296:0.066667 301:0.15294 302:0.99608 303:0.99608 304:0.36863 319:0.011765 320:0.7098 321:0.99608 322:0.68627 323:0.070588 329:0.45098 330:0.99608 331:0.99216 332:0.27843 346:0.058824 347:0.7098 348:0.99608 349:0.68235 350:0.07451 357:0.7098 358:0.99608 359:0.69804 374:0.51765 375:0.99608 376:0.99608 377:0.66667 378:0.11765 384:0.11373 385:0.93725 386:0.96863 387:0.26667 401:0.23922 402:0.94118 403:0.99608 404:0.99608 405:0.98431 406:0.20392 412:0.6 413:0.99608 414:0.56863 428:0.13725 429:0.95294 430:0.99608 431:0.92941 432:0.20392 439:0.22353 440:0.94118 441:0.92941 442:0.082353 456:0.42353 457:0.99608 458:0.9098 459:0.21961 467:0.72941 468:0.99608 469:0.46667 483:0.1451 484:0.92941 485:0.99608 486:0.33725 494:0.4 495:0.98431 496:0.58039 497:0.015686 511:0.61961 512:0.99608 513:0.64706 514:0.019608 521:0.32549 522:0.91373 523:0.7098 524:0.078431 538:0.1451 539:0.96471 540:0.95686 541:0.16078 548:0.38431 549:0.91765 550:0.88627 551:0.11373 566:0.60784 567:0.99608 568:0.61961 574:0.16863 575:0.58824 576:0.98824 577:0.78039 578:0.2902 593:0.17647 594:0.97647 595:0.99608 596:0.17255 600:0.10588 601:0.46275 602:0.86275 603:0.66667 604:0.4549 605:0.015686 621:0.79608 622:0.99608 623:0.99608 624:0.10196 625:0.015686 626:0.35686 627:0.45098 628:0.86275 629:0.56863 630:0.23922 649:0.99608 650:0.99608 651:0.99608 652:0.74902 653:0.76863 654:0.81176 655:0.58039 656:0.066667 677:0.76078 678:0.99608 679:0.9098 680:0.65098 681:0.58824 682:0.16078 
0.2137980684131096 0.2892731809248937 0.422605509452366 0.3865080291233392 186:0.0039216 187:0.027451 188:0.039216 208:0.086275 209:0.25882 210:0.25882 211:0.4902 212:0.64706 213:0.64706 214:0.66667 215:0.85882 216:0.96471 217:0.64706 218:0.59216 219:0.066667 234:0.32941 235:0.67059 236:0.9098 237:0.99608 238:0.99608 239:0.92157 240:0.75686 241:0.52549 242:0.52549 243:0.41961 244:0.13725 245:0.41569 246:0.73333 247:0.73725 248:0.05098 260:0.19216 261:0.48235 262:0.90196 263:0.99608 264:0.89804 265:0.70196 266:0.55686 267:0.0078431 275:0.52549 276:0.53333 286:0.027451 287:0.46275 288:0.96471 289:0.99608 290:0.91765 291:0.67843 292:0.17255 304:0.89804 305:0.23922 314:0.1451 315:0.94118 316:0.99608 317:0.94118 318:0.086275 332:0.28627 333:0.60392 342:0.12157 343:0.92157 344:0.99608 345:0.33333 360:0.18039 361:0.60392 370:0.51765 371:0.99608 372:0.8 373:0.031373 388:0.18039 389:0.90588 398:0.76471 399:0.99608 400:0.35686 416:0.18039 417:0.99608 426:0.60784 427:0.99608 428:0.35294 444:0.18039 445:0.83529 454:0.46667 455:0.95686 456:0.59608 472:0.27059 473:0.60392 483:0.61961 484:0.93725 485:0.32157 486:0.019608 500:0.59216 501:0.27451 512:0.31765 513:0.96078 514:0.6549 515:0.24314 527:0.098039 528:0.97255 529:0.21569 541:0.13333 542:0.50588 543:0.85882 544:0.88235 545:0.29804 546:0.023529 554:0.015686 555:0.72549 556:0.80392 557:0.027451 571:0.035294 572:0.29412 573:0.7098 574:0.77255 575:0.62745 576:0.3098 581:0.10196 582:0.71765 583:0.99608 584:0.15294 601:0.015686 602:0.22353 603:0.47059 604:0.62745 605:0.87059 606:0.92157 607:0.76863 608:0.92157 609:0.9451 610:0.81569 611:0.32941 612:0.0039216 633:0.16078 634:0.27843 635:0.64314 636:0.29804 637:0.2549 638:0.019608 
0.1697838221787156 0.2384430232455545 0.3779911544690376 0.5567223260257725 103:0.44706 104:0.55294 105:1 106:1 107:1 130:0.55294 131:1 132:0.88627 133:0.55294 134:0.11373 135:0.88627 156:0.11373 157:0.55294 158:1 159:0.88627 160:0.11373 163:0.11373 183:0.11373 184:0.44706 185:1 186:0.77647 187:0.11373 191:0.11373 210:0.22353 211:0.88627 212:0.55294 213:0.66667 237:0.66667 238:1 239:1 240:0.88627 264:0.66667 265:1 266:1 267:1 268:0.66667 291:0.44706 292:1 293:1 294:0.77647 295:0.66667 296:0.66667 318:0.11373 319:1 320:1 321:0.88627 324:0.22353 331:0.11373 332:0.11373 346:0.55294 347:1 348:0.88627 349:0.11373 359:0.44706 360:0.33725 373:0.22353 374:1 375:1 376:0.33725 387:0.55294 388:0.22353 401:0.77647 402:1 403:0.88627 414:0.22353 415:1 428:0.11373 429:1 430:1 431:0.33725 441:0.33725 442:1 443:0.66667 456:0.77647 457:1 458:0.88627 468:0.11373 469:0.77647 470:0.88627 471:0.11373 483:0.11373 484:1 485:1 486:0.55294 495:0.11373 496:0.88627 497:1 498:0.44706 511:0.22353 512:1 513:1 514:0.33725 523:0.44706 524:1 525:0.88627 539:0.33725 540:1 541:1 542:0.44706 549:0.22353 550:0.44706 551:1 552:0.88627 553:0.11373 567:0.22353 568:1 569:1 570:0.88627 575:0.22353 576:0.44706 577:1 578:0.77647 579:0.66667 580:0.11373 596:1 597:1 598:1 599:0.44706 600:0.44706 601:0.44706 602:0.77647 603:1 604:1 605:0.44706 624:0.33725 625:0.66667 626:1 627:1 628:1 629:1 630:0.77647 631:0.66667 632:0.33725 
0.06433175258821001 0 0.1064846594201731 0.05444659532533701 153:0.16471 154:0.46275 155:0.46275 156:0.46275 157:0.46275 158:0.46275 159:0.46275 160:0.062745 179:0.19608 180:0.61176 181:0.9451 182:0.99216 183:0.99216 184:0.99216 185:0.99216 186:0.99216 187:0.99216 188:0.92549 189:0.49412 190:0.31765 205:0.043137 206:0.61961 207:0.91765 208:0.99216 209:0.88627 210:0.69412 211:0.69412 212:0.3451 213:0.15686 214:0.15686 215:0.38039 216:0.79216 217:0.99216 218:0.87843 219:0.11373 232:0.28235 233:0.78824 234:0.99216 235:0.99216 236:0.5451 237:0.15686 244:0.078431 245:0.37255 246:0.92941 247:0.8 248:0.10196 259:0.27843 260:0.91765 261:0.97255 262:0.85882 263:0.57647 264:0.0078431 274:0.62745 275:0.99216 276:0.4549 287:0.83529 288:0.98039 289:0.51765 302:0.066667 303:0.76863 304:0.77647 314:0.19608 315:0.91765 316:0.50196 331:0.61961 332:0.99216 342:0.90588 343:0.86275 344:0.13725 359:0.61961 360:0.75686 369:0.41569 370:0.98431 371:0.21569 386:0.14902 387:0.95294 388:0.4549 397:0.60392 398:0.68235 399:0.031373 414:0.3098 415:0.97255 416:0.33333 425:1 426:0.61569 441:0.047059 442:0.75686 443:0.9098 453:0.64706 454:0.61569 469:0.59216 470:0.97647 471:0.51765 481:0.2 482:0.26667 496:0.2 497:0.90196 498:0.81569 523:0.2 524:0.92549 525:0.87451 526:0.15294 550:0.2 551:0.93725 552:0.85882 553:0.44706 577:0.023529 578:0.92549 579:0.99216 580:0.49412 594:0.22745 595:0.17255 603:0.18039 604:0.30588 605:0.78824 606:0.87451 607:0.52941 608:0.031373 621:0.078431 622:0.92941 623:0.90588 624:0.70196 625:0.70196 626:0.38039 627:0.16471 628:0.16471 629:0.16471 630:0.6 631:0.91373 632:0.97647 633:0.52157 634:0.15294 649:0.17255 650:0.37647 651:0.53333 652:0.9098 653:0.96471 654:0.99216 655:0.99216 656:0.99216 657:0.92157 658:0.9098 659:0.80784 660:0.33333 681:0.3098 682:0.4549 683:0.4549 684:0.4549 685:0.047059 
0 0.04153533148489773 0 0 210:0.035294 211:0.23922 212:0.54118 213:0.54118 214:0.54118 215:0.32941 216:0.019608 236:0.23922 237:0.49412 238:0.82353 239:0.99608 240:0.99608 241:0.99608 242:0.99608 243:0.99608 244:0.78039 245:0.2902 261:0.039216 262:0.34902 263:0.67843 264:0.99216 265:0.99608 266:0.99608 267:0.87843 268:0.55686 269:0.55686 270:0.55686 271:0.64706 272:0.98824 273:0.96078 274:0.47059 275:0.023529 288:0.19216 289:0.77647 290:0.99608 291:0.98431 292:0.73725 293:0.52941 294:0.26275 295:0.047059 300:0.31373 301:0.92941 302:0.99608 303:0.63529 315:0.25098 316:0.83529 317:0.99608 318:0.86667 319:0.32157 329:0.21569 330:0.92941 331:0.97647 332:0.32157 342:0.070588 343:0.91765 344:0.99608 345:0.74118 346:0.10196 358:0.36471 359:0.99608 360:0.64314 370:0.52941 371:0.99608 372:0.58039 373:0.015686 386:0.0078431 387:0.76863 388:0.97255 397:0.21961 398:0.97255 399:0.89412 400:0.07451 401:0.14118 402:0.047059 415:0.75294 416:0.99608 425:0.6902 426:0.99608 427:0.47059 428:0.11765 429:0.95686 430:0.47059 443:0.75294 444:0.99608 453:1 454:0.99608 455:0.10196 456:0.13333 457:0.95686 458:0.98824 459:0.41569 460:0.0039216 470:0.0078431 471:0.76863 472:0.96863 481:0.73725 482:0.99608 483:0.67843 484:0.36863 485:0.51765 486:0.99608 487:0.99608 488:0.27451 498:0.11373 499:0.99608 500:0.64314 509:0.20392 510:0.98039 511:0.99608 512:0.99608 513:0.99608 514:0.99608 515:0.99608 516:0.90196 517:0.15686 526:0.6902 527:0.99608 528:0.41176 538:0.031373 539:0.035294 540:0.035294 541:0.035294 542:0.16863 543:0.61961 544:0.99216 545:0.97647 546:0.71765 547:0.047059 553:0.46275 554:0.98824 555:0.85098 556:0.011765 572:0.18431 573:0.88235 574:0.99608 575:0.92549 576:0.9098 577:0.65098 578:0.21176 579:0.21176 580:0.60392 581:0.98431 582:0.93333 583:0.13725 601:0.082353 602:0.38431 603:0.9098 604:0.99608 605:0.99608 606:0.99608 607:0.99608 608:0.99608 609:0.85882 610:0.19216 631:0.090196 632:0.19216 633:0.44314 634:0.43137 635:0.19216 636:0.19216 637:0.094118 
0.4395442605998283 1.002184849440668 1.219180417375755 0.397273651590258 137:0.11373 163:0.22353 164:0.66667 165:1 190:0.66667 191:1 192:1 193:1 216:0.33725 217:1 218:1 219:0.66667 220:0.55294 221:1 243:0.44706 244:1 245:1 246:0.44706 248:0.33725 249:1 269:0.11373 270:0.55294 271:1 272:0.88627 273:0.11373 276:0.44706 277:1 296:0.11373 297:0.77647 298:1 299:0.88627 304:0.66667 305:1 318:0.11373 319:0.44706 323:0.55294 324:1 325:1 326:0.77647 331:0.11373 332:1 333:0.88627 345:0.44706 346:1 347:0.88627 348:0.44706 349:0.11373 350:0.44706 351:1 352:1 353:0.55294 359:0.77647 360:1 361:0.55294 372:0.55294 373:1 374:0.66667 376:0.22353 377:0.77647 378:1 379:0.88627 380:0.33725 381:0.11373 386:0.44706 387:1 388:0.77647 399:0.11373 400:1 401:0.77647 403:0.22353 404:0.88627 405:1 406:0.77647 414:0.77647 415:1 416:0.33725 427:0.66667 428:1 429:0.22353 430:0.22353 431:1 432:0.88627 433:0.44706 440:0.11373 441:0.88627 442:1 443:0.44706 454:0.11373 455:1 456:0.44706 457:0.33725 458:1 459:0.88627 460:0.55294 468:0.77647 469:1 470:0.55294 482:0.55294 483:1 484:0.33725 485:1 486:1 487:0.55294 495:0.44706 496:1 497:0.66667 510:0.66667 511:1 512:1 513:1 514:0.55294 520:0.11373 521:0.55294 522:0.88627 523:1 524:0.44706 538:0.77647 539:1 540:1 541:0.55294 545:0.11373 546:0.11373 547:0.88627 548:1 549:1 550:1 551:0.22353 566:1 567:1 568:1 569:0.11373 571:0.11373 572:0.11373 573:0.66667 574:1 575:0.77647 576:0.66667 577:0.44706 578:0.11373 594:0.55294 595:1 596:0.88627 597:0.77647 598:0.77647 599:1 600:0.88627 601:0.77647 602:0.33725 623:0.11373 624:0.55294 625:0.66667 626:0.88627 627:0.66667 628:0.22353 
0.4942796546827633 0.3791049455424008 0.4307902831662105 0.1082052520088851 268:0.25098 269:0.27843 270:0.3098 271:0.55294 272:0.5098 273:0.27843 274:0.14118 291:0.011765 292:0.23137 293:0.44706 294:0.52157 295:0.84706 296:0.83529 297:0.55294 298:0.55294 299:0.55294 300:0.55686 301:0.73333 302:0.99608 303:0.62745 304:0.12157 317:0.12549 318:0.61176 319:0.78431 320:0.96863 321:0.64706 322:0.38824 323:0.1098 324:0.015686 329:0.0078431 330:0.38824 331:0.97647 332:0.78039 343:0.17647 344:0.59216 345:0.96078 346:0.96078 347:0.43529 348:0.1098 359:0.94118 360:0.93333 369:0.019608 370:0.47059 371:0.98431 372:0.95294 373:0.57647 374:0.047059 386:0.21176 387:0.97647 388:0.50196 397:0.55294 398:0.83922 399:0.63922 400:0.11765 413:0.1098 414:0.89804 415:0.8549 416:0.07451 425:0.72157 426:0.74118 440:0.12157 441:0.85882 442:0.72941 443:0.1098 453:0.45098 454:0.73725 455:0.031373 467:0.28235 468:0.85882 469:0.77647 470:0.086275 482:0.4 483:0.77255 484:0.24314 493:0.05098 494:0.51373 495:0.96078 496:0.72941 497:0.086275 511:0.15294 512:0.83137 513:0.55686 519:0.11373 520:0.47059 521:0.92941 522:0.8549 523:0.30196 524:0.031373 540:0.40392 541:0.81176 542:0.55686 543:0.55294 544:0.55294 545:0.55294 546:0.78431 547:1 548:0.73333 549:0.19216 569:0.078431 570:0.28235 571:0.37255 572:0.41961 573:0.5098 574:0.27843 575:0.078431 
0.02948679002794438 0.255936632079095 0.02771993815995446 0.07160252573063343 155:0.60784 156:0.99216 157:0.99216 158:0.99216 159:0.99216 160:0.76471 161:0.37647 162:0.68235 163:0.35686 180:0.062745 181:0.28235 182:0.7451 183:0.99216 184:0.98431 185:0.98431 186:0.98431 187:0.98431 188:0.99216 189:0.98431 190:0.98431 191:0.92549 192:0.7451 207:0.062745 208:0.74118 209:0.98431 210:0.98431 211:0.99216 212:0.98431 213:0.98431 214:0.98431 215:0.98431 216:0.99216 217:0.98431 218:0.98431 219:0.98431 220:0.98431 234:0.25098 235:0.72941 236:0.98431 237:0.98431 238:0.98431 239:0.99216 240:0.98431 241:0.98431 242:0.98431 243:0.98431 244:0.99216 245:0.98431 246:0.98431 247:0.98431 248:0.82745 262:0.99216 263:0.98431 264:0.98431 265:0.98431 266:0.98431 267:0.99216 268:0.51765 269:0.67843 270:0.98431 271:0.98431 272:0.99216 273:0.98431 274:0.98431 275:0.98431 276:0.75686 288:0.094118 289:0.76078 290:1 291:0.99216 292:0.99216 293:0.99216 294:0.99216 295:0.39216 298:0.87451 299:0.99216 300:1 301:0.99216 302:0.99216 303:0.99216 304:0.99216 315:0.062745 316:0.72941 317:0.98431 318:0.99216 319:0.98431 320:0.98431 321:0.95294 322:0.47451 326:0.48235 327:0.98431 328:0.99216 329:0.98431 330:0.92157 331:0.97255 332:0.98431 343:0.49804 344:0.98431 345:0.98431 346:0.99216 347:0.98431 348:0.98431 349:0.73725 354:0.86667 355:0.98431 356:0.99216 357:0.98431 358:0.73725 359:0.8 360:0.49412 370:0.031373 371:0.61961 372:0.98431 373:0.98431 374:0.99216 375:0.98431 376:0.98431 377:0.19608 382:0.86667 383:0.98431 384:0.99216 385:0.98431 386:0.98431 387:0.95686 388:0.32549 398:0.51373 399:0.98431 400:0.98431 401:0.98431 402:0.99216 403:0.98431 404:0.98431 405:0.12157 410:0.86667 411:0.98431 412:0.99216 413:0.98431 414:0.98431 415:0.44314 416:0.13725 425:0.14118 426:0.83922 427:0.99216 428:0.99216 429:0.99216 430:1 431:0.99216 432:0.49412 437:0.50196 438:0.99216 439:0.99216 440:1 441:0.99216 442:0.99216 443:0.74118 453:0.37647 454:0.98431 455:0.98431 456:0.98431 457:0.98431 458:0.99216 459:0.98431 460:0.49412 464:0.17255 465:0.86667 466:0.98431 467:0.98431 468:0.99216 469:0.98431 470:0.98431 471:0.65882 481:0.68235 482:0.98431 483:0.98431 484:0.98431 485:0.98431 486:0.99216 487:0.92157 488:0.24706 491:0.18824 492:0.86667 493:0.98431 494:0.98431 495:0.98431 496:0.99216 497:0.98431 498:0.73725 499:0.058824 509:0.99216 510:0.98431 511:0.98431 512:0.98431 513:0.82745 514:0.50588 515:0.10588 517:0.062745 518:0.25098 519:0.91765 520:0.98431 521:0.98431 522:0.98431 523:0.98431 524:0.50588 525:0.12157 526:0.058824 537:0.99216 538:0.98431 539:0.98431 540:0.44314 541:0.13725 543:0.078431 544:0.61961 545:0.7098 546:0.98431 547:0.99216 548:0.98431 549:0.98431 550:0.98431 551:0.59608 566:0.047059 567:0.37647 568:0.52549 569:0.99216 570:1 571:0.99216 572:0.99216 573:0.99216 574:0.99216 575:1 576:0.99216 577:0.49412 593:0.12549 594:0.61961 595:0.98431 596:0.98431 597:0.98431 598:0.99216 599:0.98431 600:0.98431 601:0.95294 602:0.86275 603:0.86667 604:0.39608 605:0.12157 621:0.99216 622:0.98431 623:0.98431 624:0.98431 625:0.98431 626:0.99216 627:0.98431 628:0.73725 629:0.36863 649:0.35686 650:0.89412 651:0.73725 652:0.73725 653:0.73725 654:0.50588 655:0.12157 656:0.058824 678:0.23137 
0.03543729953364726 0.08596128934659851 0.1038925170117666 0.01158989756724888 126:0.07451 127:0.41176 128:0.41569 129:0.41176 130:0.79216 131:0.99608 132:0.47843 133:0.41176 134:0.19608 154:0.31765 155:0.99216 156:0.99608 157:0.99216 158:0.99216 159:0.99216 160:0.99216 161:0.99216 162:0.90196 163:0.18431 180:0.031373 181:0.61569 182:0.91373 183:0.99216 184:0.97255 185:0.45098 186:0.34902 187:0.34902 188:0.51765 189:0.97647 190:0.99216 191:0.87059 192:0.18431 208:0.52549 209:0.99216 210:0.99216 211:0.71373 212:0.3098 217:0.42745 218:0.99216 219:0.99216 220:0.81569 235:0.62353 236:0.94118 237:0.99216 238:0.66275 239:0.047059 245:0.015686 246:0.42745 247:0.97647 248:0.97255 249:0.36078 262:0.28235 263:0.9098 264:0.92941 265:0.66667 266:0.066667 275:0.87059 276:0.99216 277:0.40784 290:0.87843 291:0.99216 292:0.46667 303:0.35294 304:0.99216 305:0.71765 316:0.23137 317:0.63137 318:0.98431 319:0.67059 320:0.027451 321:0.33725 322:0.35294 323:0.1451 331:0.35294 332:0.99216 333:0.78431 344:0.64314 345:0.99216 346:0.94118 347:0.25882 348:0.17647 349:0.94902 350:0.75294 351:0.094118 359:0.35294 360:0.99216 361:0.40784 371:0.14118 372:0.85098 373:0.99216 374:0.87059 375:0.63529 376:0.99216 377:0.43922 378:0.094118 387:0.35294 388:0.99216 389:0.40784 399:0.48235 400:0.99608 401:0.99608 402:0.99608 403:0.99608 404:0.78039 405:0.031373 415:0.9451 416:0.99608 417:0.41176 426:0.34118 427:0.96471 428:0.99216 429:0.99216 430:0.99216 431:0.89412 432:0.082353 443:0.93725 444:0.94902 445:0.31373 454:0.41176 455:0.99216 456:0.95686 457:0.99216 458:0.99216 459:0.83922 470:0.3451 471:0.97255 472:0.78039 482:0.6902 483:0.99216 484:0.38039 485:0.7451 486:0.99216 487:0.2902 497:0.058824 498:0.74902 499:0.99216 500:0.23137 510:0.99608 511:0.99216 512:0.36471 513:0.62353 514:0.99216 515:0.2902 524:0.090196 525:0.38039 526:0.99216 527:0.71373 528:0.16471 538:0.99608 539:0.99216 540:0.36471 541:0.61961 542:0.99216 543:0.36078 552:0.7098 553:0.99216 554:0.92941 555:0.047059 566:0.99608 567:0.99216 568:0.65882 569:0.47059 570:0.99216 571:0.93725 572:0.52549 573:0.031373 578:0.3451 579:0.52549 580:0.94118 581:0.92941 582:0.21961 594:0.44314 595:0.99216 596:0.93333 597:0.027451 598:0.67843 599:0.99216 600:0.99216 601:0.73333 602:0.35294 603:0.35294 604:0.35686 605:0.83922 606:0.97255 607:0.99216 608:0.99216 609:0.66667 622:0.098039 623:0.75686 624:0.93333 626:0.070588 627:0.30196 628:0.81569 629:0.98431 630:0.99216 631:0.99216 632:0.99608 633:0.99216 634:0.98039 635:0.81569 636:0.29804 637:0.066667 651:0.098039 652:0.72941 657:0.38431 658:0.8549 659:0.99216 660:1 661:0.85098 662:0.38431 
0.02041874306293805 0.241827865888602 0 0.4824290356723221 157:0.28235 158:0.3098 185:0.2902 186:0.81961 187:0.81961 188:0.81961 189:0.81961 190:0.26667 191:0.054902 210:0.035294 211:0.64706 212:0.64314 213:0.87059 214:0.99216 215:0.99216 216:0.99216 217:0.99216 218:0.99216 219:0.26667 237:0.086275 238:0.77647 239:0.99608 240:0.99216 241:0.99216 242:0.99216 243:0.99216 244:0.99216 245:0.99216 246:0.99216 247:0.81569 263:0.15686 264:0.85098 265:0.90196 266:0.99216 267:0.99608 268:0.99216 269:0.97647 270:0.69804 271:0.18039 272:0.21961 273:0.99216 274:0.99216 275:0.81569 290:0.15686 291:0.85882 292:0.99216 293:0.99216 294:0.99216 295:0.94902 296:0.87451 297:0.47843 300:0.53333 301:0.99216 302:0.99216 303:0.81569 318:0.70196 319:0.99216 320:0.99216 321:0.99216 322:0.67843 323:0.27843 327:0.15686 328:0.85882 329:0.99216 330:0.99216 331:0.50196 344:0.16863 345:0.52549 346:0.97647 347:0.99216 348:0.99216 349:0.61569 350:0.023529 355:0.50196 356:0.99216 357:0.99216 358:0.99216 359:0.23137 371:0.15294 372:0.87059 373:0.99216 374:0.99216 375:0.99216 376:0.61569 377:0.054902 383:0.87843 384:0.99216 385:0.99216 386:0.72157 387:0.054902 398:0.14118 399:0.85098 400:0.99216 401:0.99216 402:0.57255 403:0.40784 404:0.023529 410:0.28235 411:0.9451 412:0.99216 413:0.99216 414:0.29412 426:0.48235 427:0.99608 428:0.99608 429:0.63137 430:0.17255 437:0.062745 438:0.99608 439:0.99608 440:1 441:0.47059 454:0.81961 455:0.99216 456:0.60392 457:0.019608 464:0.19608 465:0.83137 466:0.99216 467:0.99216 468:0.75686 469:0.082353 482:0.42745 483:0.89804 484:0.18431 491:0.027451 492:0.62745 493:0.99216 494:0.99216 495:0.76471 496:0.10196 519:0.6902 520:0.99216 521:0.99216 522:0.76863 523:0.062745 545:0.33333 546:0.87843 547:0.99608 548:0.92157 549:0.66275 550:0.062745 567:0.0078431 568:0.12157 569:0.015686 571:0.062745 572:0.32941 573:0.92549 574:0.99216 575:0.94902 576:0.32157 595:0.37255 596:0.99216 597:0.11373 598:0.37647 599:0.77647 600:0.99216 601:0.99216 602:0.99216 603:0.27843 623:0.64706 624:0.99216 625:0.9451 626:0.97647 627:0.99216 628:0.99216 629:0.92941 630:0.63922 651:0.54118 652:0.99216 653:0.99216 654:0.99216 655:0.99216 656:0.72157 657:0.19216 679:0.062745 680:0.99216 681:0.99216 682:0.99216 683:0.67843 684:0.26275 
0.0687582544818859 0.4015793542886431 0.1118686020570221 0.3465501054068399 154:0.14118 155:0.27451 156:0.89804 157:0.60784 158:0.51373 159:0.086275 180:0.13333 181:0.30196 182:0.87451 183:0.99608 184:0.99608 185:0.99608 186:0.99608 187:0.64706 188:0.2902 189:0.0078431 206:0.011765 207:0.4 208:0.86275 209:0.99608 210:0.99608 211:0.99608 212:0.99608 213:0.99608 214:0.99608 215:0.99608 216:0.99608 217:0.40392 218:0.0078431 233:0.015686 234:0.47451 235:0.99608 236:0.99608 237:0.99608 238:0.99608 239:0.99608 240:0.99608 241:0.99608 242:0.99608 243:0.99608 244:0.99608 245:1 246:0.36078 260:0.015686 261:0.17255 262:0.99608 263:0.99608 264:0.99608 265:0.99608 266:0.9098 267:0.93725 268:0.97255 269:0.99608 270:0.99608 271:0.99608 272:0.99608 273:1 274:0.82745 275:0.027451 288:0.17255 289:0.81961 290:0.99608 291:0.99608 292:0.99608 293:0.96471 294:0.22745 295:0.18039 296:0.7098 297:0.99608 298:0.99608 299:0.99608 300:0.99608 301:0.99608 302:0.99608 303:0.047059 315:0.015686 316:0.65882 317:0.99608 318:0.99608 319:0.99608 320:0.86667 321:0.26667 324:0.10196 325:0.87059 326:0.99608 327:0.99608 328:0.99608 329:0.99608 330:0.99608 331:0.12941 342:0.011765 343:0.25882 344:0.99608 345:0.99608 346:0.99608 347:0.99608 348:0.47059 353:0.7098 354:0.99608 355:0.99608 356:0.99608 357:1 358:0.99608 359:0.53333 370:0.05098 371:0.99608 372:0.99608 373:0.99608 374:0.99608 375:0.87451 376:0.094118 381:0.094118 382:0.87843 383:0.99608 384:0.99608 385:0.99608 386:0.99608 387:0.18824 398:0.41176 399:0.99608 400:0.99608 401:0.99608 402:0.8902 403:0.21961 410:0.83137 411:0.99608 412:0.99608 413:0.99608 414:0.99608 415:0.047059 425:0.0078431 426:0.66275 427:0.99608 428:0.99608 429:0.99608 430:0.71765 438:0.69804 439:0.99608 440:0.99608 441:0.99608 442:0.66275 443:0.011765 453:0.027451 454:0.99608 455:0.99608 456:0.99608 457:0.99608 458:0.36471 466:0.72549 467:0.99608 468:0.99608 469:0.99608 470:0.55686 481:0.019608 482:0.58824 483:0.60392 484:0.39608 485:0.43529 486:0.070588 494:0.83137 495:0.99608 496:0.99608 497:0.99608 498:0.55686 509:0.011765 510:0.4902 511:0.07451 522:0.83137 523:0.99608 524:0.99608 525:0.99608 526:0.15294 537:0.0039216 538:0.066667 548:0.1098 549:0.52157 550:0.97255 551:0.99608 552:0.99608 553:0.63922 554:0.011765 566:0.47843 567:0.60392 568:0.63137 569:0.15294 575:0.10588 576:0.80784 577:0.99608 578:0.99608 579:0.99608 580:0.65098 581:0.070588 593:0.023529 594:0.95686 595:1 596:1 597:0.88235 598:0.72549 599:0.58039 600:0.6549 601:0.12157 602:0.42745 603:0.92941 604:0.99608 605:0.99608 606:0.99608 607:0.99608 608:0.16471 621:0.0039216 622:0.33333 623:0.80392 624:0.99608 625:0.99608 626:0.99608 627:0.99608 628:0.99608 629:0.94902 630:0.98039 631:0.99608 632:0.99608 633:0.99608 634:0.84706 635:0.14118 636:0.011765 649:0.011765 650:0.21569 651:0.30196 652:0.80784 653:0.99608 654:0.99608 655:0.99608 656:0.99608 657:0.99608 658:0.99608 659:0.99608 660:0.86275 661:0.53333 662:0.11373 677:0.0039216 678:0.011765 680:0.011765 681:0.61961 682:0.68627 683:0.74902 684:0.60392 685:0.99608 686:0.63922 687:0.5098 688:0.12157 
